/* Generated by Edge Impulse
 *
 * Permission is hereby granted, free of charge, to any person obtaining a copy
 * of this software and associated documentation files (the "Software"), to deal
 * in the Software without restriction, including without limitation the rights
 * to use, copy, modify, merge, publish, distribute, sublicense, and/or sell
 * copies of the Software, and to permit persons to whom the Software is
 * furnished to do so, subject to the following conditions:
 *
 * The above copyright notice and this permission notice shall be included in
 * all copies or substantial portions of the Software.
 *
 * THE SOFTWARE IS PROVIDED "AS IS", WITHOUT WARRANTY OF ANY KIND, EXPRESS OR
 * IMPLIED, INCLUDING BUT NOT LIMITED TO THE WARRANTIES OF MERCHANTABILITY,
 * FITNESS FOR A PARTICULAR PURPOSE AND NONINFRINGEMENT. IN NO EVENT SHALL THE
 * AUTHORS OR COPYRIGHT HOLDERS BE LIABLE FOR ANY CLAIM, DAMAGES OR OTHER
 * LIABILITY, WHETHER IN AN ACTION OF CONTRACT, TORT OR OTHERWISE, ARISING FROM,
 * OUT OF OR IN CONNECTION WITH THE SOFTWARE OR THE USE OR OTHER DEALINGS IN THE
 * SOFTWARE.
 */
// Generated on: 01.04.2023 14:38:55

#include <stdio.h>
#include <stdlib.h>
#include "edge-impulse-sdk/tensorflow/lite/c/builtin_op_data.h"
#include "edge-impulse-sdk/tensorflow/lite/c/common.h"
#include "edge-impulse-sdk/tensorflow/lite/micro/micro_mutable_op_resolver.h"
#include "edge-impulse-sdk/porting/ei_classifier_porting.h"

#if EI_CLASSIFIER_PRINT_STATE
#if defined(__cplusplus) && EI_C_LINKAGE == 1
extern "C" {
    extern void ei_printf(const char *format, ...);
}
#else
extern void ei_printf(const char *format, ...);
#endif
#endif

#if defined __GNUC__
#define ALIGN(X) __attribute__((aligned(X)))
#elif defined _MSC_VER
#define ALIGN(X) __declspec(align(X))
#elif defined __TASKING__
#define ALIGN(X) __align(X)
#endif

#ifndef EI_MAX_SCRATCH_BUFFER_COUNT
#define EI_MAX_SCRATCH_BUFFER_COUNT 4
#endif // EI_MAX_SCRATCH_BUFFER_COUNT

#ifndef EI_MAX_OVERFLOW_BUFFER_COUNT
#define EI_MAX_OVERFLOW_BUFFER_COUNT 10
#endif // EI_MAX_OVERFLOW_BUFFER_COUNT

using namespace tflite;
using namespace tflite::ops;
using namespace tflite::ops::micro;

namespace {

constexpr int kTensorArenaSize = 370624;

#if defined(EI_CLASSIFIER_ALLOCATION_STATIC)
uint8_t tensor_arena[kTensorArenaSize] ALIGN(16);
#elif defined(EI_CLASSIFIER_ALLOCATION_STATIC_HIMAX)
#pragma Bss(".tensor_arena")
uint8_t tensor_arena[kTensorArenaSize] ALIGN(16);
#pragma Bss()
#elif defined(EI_CLASSIFIER_ALLOCATION_STATIC_HIMAX_GNU)
uint8_t tensor_arena[kTensorArenaSize] ALIGN(16) __attribute__((section(".tensor_arena")));
#else
#define EI_CLASSIFIER_ALLOCATION_HEAP 1
uint8_t* tensor_arena = NULL;
#endif

static uint8_t* tensor_boundary;
static uint8_t* current_location;

template <int SZ, class T> struct TfArray {
  int sz; T elem[SZ];
};
enum used_operators_e {
  OP_CONV_2D, OP_MAX_POOL_2D, OP_RESHAPE, OP_FULLY_CONNECTED, OP_SOFTMAX,  OP_LAST
};
struct TensorInfo_t { // subset of TfLiteTensor used for initialization from constant memory
  TfLiteAllocationType allocation_type;
  TfLiteType type;
  void* data;
  TfLiteIntArray* dims;
  size_t bytes;
  TfLiteQuantization quantization;
};
struct NodeInfo_t { // subset of TfLiteNode used for initialization from constant memory
  struct TfLiteIntArray* inputs;
  struct TfLiteIntArray* outputs;
  void* builtin_data;
  used_operators_e used_op_index;
};

TfLiteContext ctx{};
TfLiteTensor tflTensors[15];
TfLiteEvalTensor tflEvalTensors[15];
TfLiteRegistration registrations[OP_LAST];
TfLiteNode tflNodes[7];

const TfArray<4, int> tensor_dimension0 = { 4, { 1,96,96,3 } };
const TfArray<1, float> quant0_scale = { 1, { 0.0039215688593685627, } };
const TfArray<1, int> quant0_zero = { 1, { -128 } };
const TfLiteAffineQuantization quant0 = { (TfLiteFloatArray*)&quant0_scale, (TfLiteIntArray*)&quant0_zero, 0 };
const ALIGN(8) int32_t tensor_data1[2] = { -1, 9216, };
const TfArray<1, int> tensor_dimension1 = { 1, { 2 } };
const ALIGN(16) int8_t tensor_data2[32*3*3*3] = { 
  /* [0][0][][] */ -89,86,78, -7,-42,-102, 113,2,-73, 
  /* [0][1][][] */ -123,112,-8, 20,-62,-27, -75,-18,45, 
  /* [0][2][][] */ 127,-41,26, 104,-48,-13, -105,83,25, 
  /* [1][0][][] */ 30,43,-9, 125,2,-91, 106,-67,38, 
  /* [1][1][][] */ 22,-35,-54, 120,-104,2, 52,113,-40, 
  /* [1][2][][] */ 87,-87,-110, 73,91,127, 5,-53,3, 
  /* [2][0][][] */ -6,-127,-50, 70,34,-86, -52,-101,87, 
  /* [2][1][][] */ -14,-79,-52, -50,75,75, -62,1,16, 
  /* [2][2][][] */ 24,126,-106, 77,-58,49, -86,99,-104, 
  /* [3][0][][] */ -127,120,-33, 19,26,12, 96,-76,-15, 
  /* [3][1][][] */ -81,-39,82, -44,-47,-13, -26,-46,31, 
  /* [3][2][][] */ -117,-116,4, 68,33,95, 96,0,-82, 
  /* [4][0][][] */ 6,112,-112, 15,40,30, 43,124,115, 
  /* [4][1][][] */ 113,-54,66, 4,-105,117, -9,54,35, 
  /* [4][2][][] */ -39,89,-55, 83,45,89, -88,59,127, 
  /* [5][0][][] */ 73,14,68, 127,69,8, 23,-29,-92, 
  /* [5][1][][] */ 17,-55,-11, -85,-57,60, -69,-5,-66, 
  /* [5][2][][] */ 19,-113,14, 41,112,77, 82,6,88, 
  /* [6][0][][] */ -90,-19,-91, 40,77,-54, -24,123,-21, 
  /* [6][1][][] */ 20,-22,-17, -2,-9,-68, 45,-103,85, 
  /* [6][2][][] */ -68,33,-72, 24,58,-10, -90,111,-127, 
  /* [7][0][][] */ -29,63,-11, 44,-63,104, 117,106,62, 
  /* [7][1][][] */ 127,7,-100, 96,-65,38, -9,119,104, 
  /* [7][2][][] */ 33,-100,-94, 72,-83,-14, 5,23,-39, 
  /* [8][0][][] */ 48,-69,-64, 126,-3,65, 127,-53,-16, 
  /* [8][1][][] */ -85,20,86, -19,-44,-51, -47,-109,46, 
  /* [8][2][][] */ -8,2,-65, 40,-70,68, -100,66,85, 
  /* [9][0][][] */ 5,12,102, 62,32,78, 82,127,-55, 
  /* [9][1][][] */ -10,46,104, 121,-118,86, 114,43,33, 
  /* [9][2][][] */ 56,90,5, -114,74,46, -101,-88,37, 
  /* [10][0][][] */ -105,-104,-63, 39,-3,18, -44,-23,-93, 
  /* [10][1][][] */ -57,-83,109, -77,-16,-40, -57,14,-18, 
  /* [10][2][][] */ -36,73,-122, -88,-127,91, 30,-53,-5, 
  /* [11][0][][] */ 116,-91,52, 127,8,105, 14,64,-44, 
  /* [11][1][][] */ 116,24,126, 98,-90,117, 100,16,55, 
  /* [11][2][][] */ 99,-111,-73, -14,-33,37, 78,-44,-19, 
  /* [12][0][][] */ 61,-48,37, 79,-54,12, 72,-57,-8, 
  /* [12][1][][] */ 127,74,44, 18,-3,-50, -58,124,45, 
  /* [12][2][][] */ 21,-77,-14, -9,67,53, 27,6,-37, 
  /* [13][0][][] */ 24,-11,-91, 6,109,48, -48,62,6, 
  /* [13][1][][] */ -37,-59,92, 106,-64,-56, -106,31,127, 
  /* [13][2][][] */ 79,120,46, -23,-99,99, -47,-26,113, 
  /* [14][0][][] */ -65,-2,127, -33,-16,26, -97,-73,122, 
  /* [14][1][][] */ -96,-55,49, -11,21,39, 84,-50,-21, 
  /* [14][2][][] */ -95,111,107, -35,97,30, -72,13,-99, 
  /* [15][0][][] */ -71,-80,63, 127,23,-12, 84,99,-79, 
  /* [15][1][][] */ -56,-6,12, -12,-43,-5, -50,91,121, 
  /* [15][2][][] */ 81,96,-104, 18,21,66, 12,110,84, 
  /* [16][0][][] */ -88,59,-11, -30,-40,-4, -123,-81,119, 
  /* [16][1][][] */ 8,104,107, 127,-13,43, 91,-103,-42, 
  /* [16][2][][] */ -43,-58,0, 104,-56,-3, -58,44,-83, 
  /* [17][0][][] */ -77,2,19, -45,40,-94, -5,-41,-71, 
  /* [17][1][][] */ 15,-5,107, -20,-63,-57, 118,-61,-88, 
  /* [17][2][][] */ -77,127,15, -32,-56,-95, -90,-124,65, 
  /* [18][0][][] */ -63,-99,22, -21,-6,-12, 32,-72,-12, 
  /* [18][1][][] */ 47,-35,-24, 102,68,-81, -66,-78,-6, 
  /* [18][2][][] */ 24,-22,119, 127,45,26, -35,-30,117, 
  /* [19][0][][] */ -24,4,40, 111,-100,112, -16,27,-24, 
  /* [19][1][][] */ -3,36,99, -107,-42,-14, 88,-16,98, 
  /* [19][2][][] */ 20,106,127, 93,37,82, 49,-82,-106, 
  /* [20][0][][] */ -91,14,32, 2,-28,16, -7,-12,-116, 
  /* [20][1][][] */ -80,-40,-121, 22,-109,-64, -73,-90,116, 
  /* [20][2][][] */ 117,48,111, -104,76,-37, 34,127,26, 
  /* [21][0][][] */ 39,-24,9, -37,-34,89, 127,120,-25, 
  /* [21][1][][] */ -38,-88,43, -46,-22,111, -54,77,76, 
  /* [21][2][][] */ 74,46,-9, 94,-1,32, 98,32,90, 
  /* [22][0][][] */ -103,127,-33, 55,8,23, -86,-104,0, 
  /* [22][1][][] */ -77,-19,-41, 22,-101,-105, 96,-88,28, 
  /* [22][2][][] */ 3,-11,56, 101,34,-7, -5,-15,86, 
  /* [23][0][][] */ -20,-34,-97, 8,95,117, -63,-86,-31, 
  /* [23][1][][] */ 68,-23,85, -30,77,36, 127,82,53, 
  /* [23][2][][] */ -115,49,-104, 90,-125,-58, -45,-22,103, 
  /* [24][0][][] */ 82,86,89, -91,-40,51, 17,22,63, 
  /* [24][1][][] */ -105,-41,-90, -3,127,-8, -44,-14,109, 
  /* [24][2][][] */ -65,-29,80, 41,-8,46, 122,-89,-59, 
  /* [25][0][][] */ -78,-127,-117, 73,-32,-113, 4,-68,-79, 
  /* [25][1][][] */ 22,44,-69, 74,-104,-54, 52,-94,106, 
  /* [25][2][][] */ 97,126,112, -119,-17,85, -123,29,-100, 
  /* [26][0][][] */ 121,110,127, -110,86,76, -97,33,75, 
  /* [26][1][][] */ -10,69,-94, -60,-54,54, 10,102,52, 
  /* [26][2][][] */ -72,6,-1, 61,-36,-52, -35,13,44, 
  /* [27][0][][] */ 115,79,6, -95,-69,-104, -38,8,3, 
  /* [27][1][][] */ -103,-106,29, 61,127,-97, -111,-2,-77, 
  /* [27][2][][] */ -8,-110,-72, 35,97,-96, 88,-116,113, 
  /* [28][0][][] */ 53,16,102, -103,-64,-105, -67,-96,-113, 
  /* [28][1][][] */ 63,-22,-83, -127,-54,95, 111,48,97, 
  /* [28][2][][] */ 10,-22,55, -60,-74,-102, 47,-113,62, 
  /* [29][0][][] */ 31,-37,25, 37,96,-13, -51,67,98, 
  /* [29][1][][] */ -28,117,63, -112,-15,-91, -84,66,114, 
  /* [29][2][][] */ 63,30,-82, 113,117,127, 28,-44,12, 
  /* [30][0][][] */ -108,47,54, 35,-91,80, -32,-108,105, 
  /* [30][1][][] */ 84,71,-127, 24,111,119, 38,-69,-58, 
  /* [30][2][][] */ 53,43,-7, 39,28,8, 76,3,-15, 
  /* [31][0][][] */ 80,64,-14, 34,-85,127, -84,-30,-47, 
  /* [31][1][][] */ 54,84,85, 46,-97,-86, -63,-20,30, 
  /* [31][2][][] */ -87,-67,-26, 110,-11,71, -8,-18,82, 
};
const TfArray<4, int> tensor_dimension2 = { 4, { 32,3,3,3 } };
const TfArray<32, float> quant2_scale = { 32, { 0.0011036017676815391, 0.0010717590339481831, 0.0010809384984895587, 0.0010639420943334699, 0.0011029120068997145, 0.001124613219872117, 0.0010163866681978106, 0.0011582759907469153, 0.0010578104993328452, 0.0010020015761256218, 0.0010363411856815219, 0.0011062578996643424, 0.0012455764226615429, 0.0011443287367001176, 0.00105535879265517, 0.0010993890464305878, 0.0010383663466200233, 0.00093151169130578637, 0.0010710727656260133, 0.0011701562907546759, 0.0010874699801206589, 0.0011506492737680674, 0.0011733138235285878, 0.0010739455465227365, 0.0011131770443171263, 0.0010742151644080877, 0.0010975402547046542, 0.0010882334318011999, 0.0010388999944552779, 0.0011183674214407802, 0.0010806563077494502, 0.0011539510451257229, } };
const TfArray<32, int> quant2_zero = { 32, { 0,0,0,0,0,0,0,0,0,0,0,0,0,0,0,0,0,0,0,0,0,0,0,0,0,0,0,0,0,0,0,0 } };
const TfLiteAffineQuantization quant2 = { (TfLiteFloatArray*)&quant2_scale, (TfLiteIntArray*)&quant2_zero, 0 };
const ALIGN(16) int32_t tensor_data3[32] = { 2145, 623, 2055, -445, 2157, -1711, 2881, -1490, 2431, -1935, 0, -2674, 2752, 766, 4226, -1906, 2121, -2527, 3906, -2034, 1371, -2230, 1792, 23, 2961, -1116, 905, -1733, -225, 2007, -7, 2928, };
const TfArray<1, int> tensor_dimension3 = { 1, { 32 } };
const TfArray<32, float> quant3_scale = { 32, { 4.327850547269918e-06, 4.202976924716495e-06, 4.2389747250126675e-06, 4.1723224057932384e-06, 4.3251452552794944e-06, 4.41024803876644e-06, 3.9858305171946995e-06, 4.5422589209920261e-06, 4.1482767301204149e-06, 3.9294181988225318e-06, 4.0640834413352422e-06, 4.3382665353419725e-06, 4.8846136451174971e-06, 4.4875637286168057e-06, 4.1386620068806224e-06, 4.3113300307595637e-06, 4.0720251490711235e-06, 3.6529872886603698e-06, 4.2002857298939489e-06, 4.5888486965850461e-06, 4.2645883695513476e-06, 4.5123501877242234e-06, 4.6012310122023337e-06, 4.2115511860174593e-06, 4.365400400274666e-06, 4.2126089283556212e-06, 4.3040795389970299e-06, 4.267582426109584e-06, 4.074117896379903e-06, 4.3857548917003442e-06, 4.2378683247079607e-06, 4.5252986637933645e-06, } };
const TfArray<32, int> quant3_zero = { 32, { 0,0,0,0,0,0,0,0,0,0,0,0,0,0,0,0,0,0,0,0,0,0,0,0,0,0,0,0,0,0,0,0 } };
const TfLiteAffineQuantization quant3 = { (TfLiteFloatArray*)&quant3_scale, (TfLiteIntArray*)&quant3_zero, 0 };
const ALIGN(16) int8_t tensor_data4[16*3*3*32] = { 
  /* [0][0][][] */ -55,-23,-46,98,-28,-71,74,-36,92,-9,-83,-14,-10,-81,26,-41,68,-61,87,72,42,89,74,20,98,-21,-50,68,-1,-36,-57,71, 9,15,88,14,-36,-34,-39,-83,-67,44,-88,42,111,70,14,38,24,-1,-71,96,51,-67,19,80,48,15,-44,-4,8,-49,-94,-59, -84,5,-72,24,-39,46,30,101,-70,75,71,66,2,-9,-68,54,52,-58,38,15,31,68,-68,55,57,-70,45,-80,-68,-47,-64,31, 
  /* [0][1][][] */ 62,-47,-54,98,58,-16,47,-90,-42,-13,-78,-30,-60,-44,49,70,-31,65,-39,61,99,84,22,3,55,10,1,30,30,78,35,-78, 25,-89,30,-34,10,27,95,14,8,83,-17,-52,-39,11,52,70,88,-63,-11,33,-80,49,30,-3,-63,-44,-88,-89,-72,-46,-3,-25, 43,17,-32,50,50,67,23,-79,-65,66,77,73,-6,-35,-22,84,-102,2,60,-4,-76,-20,16,69,59,-8,70,59,-72,13,-18,38, 
  /* [0][2][][] */ -6,-18,-70,-52,-82,79,31,61,-86,-35,93,-41,-60,-65,-75,-1,18,-14,52,46,29,-18,21,-9,-78,-28,-15,2,43,-27,-94,-78, -24,-62,-60,-41,0,-33,37,81,-64,-38,85,102,67,-74,-25,53,11,-21,78,41,27,9,-7,45,69,-32,-38,40,-57,-76,-90,-4, -48,34,93,-3,-15,95,-16,85,54,32,63,91,127,27,-60,84,-18,-31,50,73,80,90,-16,82,21,-79,66,-53,-49,-56,-28,41, 
  /* [1][0][][] */ -61,107,-81,-71,13,-29,72,51,-91,-46,-46,27,-62,52,-2,-8,60,93,35,110,69,-17,-78,29,119,-110,0,75,55,51,28,39, -48,65,117,-8,34,-4,-92,-59,-48,-15,114,-10,-1,-62,107,115,95,-4,74,89,-91,17,-72,-71,-30,65,-26,-16,24,-89,-68,43, -51,31,20,60,83,-49,92,-11,-27,73,48,-47,52,103,103,2,89,110,-89,-57,81,-49,96,81,41,36,69,-27,-81,-103,-50,-3, 
  /* [1][1][][] */ -86,21,-1,-65,55,-12,16,-82,29,40,9,-55,69,88,78,-10,-7,-51,-37,84,-65,45,22,18,-5,-63,117,-27,27,22,-53,-51, -100,7,82,-14,50,-105,-2,12,-51,-3,66,-68,56,49,79,-12,28,-89,-127,96,-28,-53,-40,66,69,-82,28,33,62,-98,47,89, -5,-80,4,-34,-50,-72,74,47,-23,-31,-5,-41,90,-52,74,113,36,-58,28,-44,-63,61,-50,83,-99,-68,54,93,84,35,108,-21, 
  /* [1][2][][] */ 11,33,-13,-6,111,-103,109,43,2,3,-94,106,-75,-23,-76,-52,74,-9,-42,-89,34,-26,11,-104,-13,-41,-33,14,-117,70,98,77, 125,-61,-20,83,80,-74,27,73,-96,94,-81,-53,82,41,82,-44,-105,-72,-12,124,29,-59,-82,100,88,89,30,-79,-41,94,-103,-14, -25,-81,40,-64,60,-92,-38,49,46,80,15,-53,42,8,-19,-104,-5,6,-121,-28,-93,-41,-119,7,111,50,70,-101,51,106,80,104, 
  /* [2][0][][] */ -73,79,-76,-51,25,94,-60,-86,95,6,-23,104,28,-34,-92,76,-15,-81,-34,-73,8,38,29,20,79,72,107,98,42,101,12,-74, 75,-18,-55,-19,47,-37,-41,23,44,-5,69,97,44,62,-97,84,22,59,90,-37,37,105,43,9,58,17,-5,40,35,96,-6,-28, 37,111,58,-42,-62,-40,22,91,-50,-81,-66,11,123,67,-98,16,70,57,6,77,-91,39,-55,-82,57,-48,82,91,59,70,94,36, 
  /* [2][1][][] */ -33,92,-24,13,14,85,-40,-82,104,-31,-100,-19,10,97,-86,-69,76,-69,-109,-8,-18,-43,-6,82,114,36,65,72,7,51,18,88, -20,50,-22,82,80,3,-39,-12,-24,39,-65,19,-55,67,23,-82,53,-19,-95,-84,45,-80,-81,-76,-63,-104,-5,-93,-73,-14,83,62, 101,-58,63,88,73,59,35,-24,87,4,-80,-79,22,-69,-28,100,-5,-12,23,-18,44,-25,52,53,30,-28,-57,-49,-82,38,-87,4, 
  /* [2][2][][] */ -43,97,58,25,-21,113,-12,-76,87,-33,-45,-10,89,-53,-99,-32,-17,95,78,56,46,-55,-2,35,116,78,38,8,32,82,-82,-90, 19,-18,-92,-87,29,-56,-5,89,-56,104,30,106,127,34,-40,40,44,57,44,33,-71,76,-12,-9,77,-56,84,57,25,36,36,-87, 113,1,-15,92,1,14,105,107,55,-22,79,-20,74,5,77,-32,63,81,-54,-65,8,-33,2,43,-3,-106,-4,63,45,68,-1,-49, 
  /* [3][0][][] */ -58,43,11,18,-18,94,-24,100,-16,-11,20,98,120,91,61,3,15,-80,60,24,-38,72,80,-31,10,-74,-22,96,84,-20,3,107, 19,96,80,23,-17,15,30,23,-31,-15,-36,39,37,5,-15,32,-91,-72,68,99,-69,82,-67,-82,-84,68,79,53,-42,-26,94,-20, -50,49,37,-86,6,82,74,91,25,-71,-81,99,-21,-48,44,-58,-49,-67,105,89,91,80,-21,-44,-45,4,23,-23,75,-53,4,97, 
  /* [3][1][][] */ 14,-58,64,73,-64,81,54,-13,-6,101,-53,41,22,3,-35,-6,-19,-15,54,64,79,57,23,-5,-56,54,-77,-70,-61,101,-78,13, -31,85,-65,4,-61,-66,-50,-38,83,19,0,52,127,45,-105,-29,87,19,-56,45,84,54,-61,49,85,-89,-72,-89,-15,-46,55,-90, 98,71,5,20,-73,-22,-32,-7,-66,-29,-88,26,48,75,12,-11,-80,-57,100,-43,-52,-29,95,82,104,-26,59,19,44,-74,-87,-1, 
  /* [3][2][][] */ 5,24,-35,-49,80,-62,84,-14,17,40,74,-50,56,64,64,102,23,98,13,-66,-43,-10,-3,-54,-54,-44,100,87,-4,82,-59,-80, 13,-52,-92,49,-31,41,37,108,-36,76,-31,-47,118,61,-29,18,5,-34,101,-29,10,107,21,49,90,12,-62,-75,-3,-14,-3,-25, 58,-10,-15,20,29,100,97,8,-21,96,-70,19,9,79,-64,106,-8,-86,-63,90,-7,-63,52,2,20,-48,-28,52,-45,-7,-57,24, 
  /* [4][0][][] */ 24,37,81,-6,66,-51,-14,69,-84,-11,19,-24,58,-60,47,106,116,-84,108,103,-53,104,-62,106,-16,54,-91,-5,-66,-10,-94,-53, -66,-45,9,-76,73,75,-108,-19,-13,-95,-35,90,-66,-9,-9,-15,17,-29,34,28,-97,-7,-72,22,41,35,-92,59,-86,-32,-36,93, -16,80,107,4,100,-14,-27,-68,-81,5,-75,-76,64,-10,14,-15,-16,23,94,-66,79,-1,111,-49,-84,25,84,53,-9,-54,-28,60, 
  /* [4][1][][] */ -88,-7,69,-66,-79,1,-21,64,-3,97,55,53,61,36,-99,-70,0,83,107,-26,-47,-30,-26,-58,123,-17,-8,87,90,49,-14,-13, -14,91,-103,-34,-90,89,94,-52,17,15,47,-48,-36,0,-82,65,-30,111,-12,73,-44,22,67,0,7,1,-80,68,-19,84,81,7, 94,-85,57,-10,-69,-87,118,-73,120,-23,50,92,55,-53,77,-57,-39,-65,121,-59,-87,-103,20,122,3,-73,65,19,94,-38,-36,-20, 
  /* [4][2][][] */ 42,51,-106,-103,39,-9,80,-20,-28,-42,46,80,108,95,30,-34,69,14,-64,4,-80,113,47,0,-21,20,117,-83,60,-86,97,6, -61,-38,-95,-17,74,111,36,66,54,96,-18,35,127,-37,65,9,88,92,-70,-98,-95,-87,32,109,55,-54,-30,50,-17,78,95,111, 103,-23,-18,81,26,-37,120,85,34,-7,51,-63,-28,-28,13,-22,1,82,18,-78,-30,45,-93,-73,110,33,-63,-73,17,25,-67,9, 
  /* [5][0][][] */ 61,-45,-110,54,88,116,10,113,-82,-83,-97,64,109,104,-92,-59,-18,13,51,9,65,13,-78,64,-94,75,59,23,-116,-52,-3,111, -20,-3,15,-43,50,-6,-57,-65,-76,126,-2,46,-7,29,102,82,-57,-107,14,118,-69,117,-101,-15,-10,110,22,-46,86,94,90,8, -100,16,72,71,36,98,70,12,-46,-58,23,-29,113,-102,-89,-48,-26,73,-88,125,-24,-90,56,12,-1,-17,-2,105,19,85,-38,-2, 
  /* [5][1][][] */ 23,-66,19,-107,56,100,-77,61,57,-56,101,-23,127,-57,-79,-17,-32,118,-21,8,-123,73,-67,-13,-35,78,-36,2,23,-103,-103,-72, -15,-70,-11,116,86,-5,51,26,-83,9,-67,2,-75,92,59,-75,-89,54,-96,101,-54,-41,-4,-27,59,40,-9,-66,100,-56,39,-78, -110,-84,71,-87,-57,-89,74,51,-101,34,-101,92,-32,-44,-47,-4,-14,-62,-68,15,63,88,5,-58,23,10,-46,-115,90,-85,63,-96, 
  /* [5][2][][] */ -109,-86,-92,-63,110,13,-125,17,-45,-36,66,103,15,-85,15,-31,102,-25,-115,16,-63,10,25,107,-67,43,7,47,-87,117,112,110, -15,-67,-30,-35,-54,104,-58,42,85,-49,33,104,89,-50,37,122,87,-2,92,75,18,83,-72,-80,-98,17,104,-71,44,-60,113,-92, 33,2,23,77,113,0,20,57,52,34,68,-89,49,-11,21,-32,51,-51,8,65,96,76,-35,79,49,33,32,-20,-30,41,112,32, 
  /* [6][0][][] */ 86,29,57,101,24,48,-47,84,52,7,41,-87,8,108,3,-98,-41,85,-5,-35,60,-56,-17,-18,31,12,4,-77,-100,29,23,-59, 103,-8,-70,62,3,12,111,-82,-68,18,-12,-9,-20,49,51,-81,2,-1,18,2,62,90,-32,118,64,84,-71,-41,-99,112,-27,33, 36,28,-74,43,73,41,24,98,-88,85,107,-70,21,-59,27,88,-54,-48,-70,-64,62,71,90,18,-13,-103,118,-70,62,-80,-89,-12, 
  /* [6][1][][] */ -17,-17,40,-66,17,53,70,-60,38,14,99,23,26,21,19,-92,-65,35,34,-94,-58,1,-67,-63,61,-92,-94,6,-51,68,62,60, 45,63,-102,5,77,-55,108,77,84,2,-97,-51,-97,-65,127,-5,-84,-71,73,86,80,-84,-5,11,70,-62,69,76,-38,-58,-103,-45, 30,-78,-61,57,37,-26,-56,52,-49,34,57,78,-32,62,0,7,28,67,-43,-14,-75,64,-35,70,58,17,84,-17,-52,-21,-54,-64, 
  /* [6][2][][] */ 80,28,99,102,17,-18,70,15,-47,35,64,-6,23,18,-64,-42,-35,80,74,-58,-12,-23,30,-46,25,-60,-66,-72,41,-62,32,-68, 3,48,11,8,54,-26,-110,-48,18,21,-32,-62,-70,-64,-25,-28,-44,5,46,37,97,-93,20,62,-58,36,-41,35,45,8,12,29, 98,98,41,-101,106,14,89,23,-67,-65,97,-90,-27,-47,109,-68,-25,109,101,-32,-23,-63,-85,47,-26,-91,-59,25,-28,-24,30,-59, 
  /* [7][0][][] */ -37,-65,84,-14,-40,92,79,28,47,-86,-59,25,92,66,94,-99,-71,-95,-50,14,64,26,-34,77,52,13,-62,51,80,90,8,-15, -15,65,108,57,36,-48,28,-22,64,-97,-60,89,87,-7,42,-84,85,75,114,26,66,-87,-64,69,-79,9,-7,81,-76,-33,-37,-7, 71,14,106,-91,3,19,0,38,-10,-59,87,-50,-48,-94,47,-49,-11,-14,-52,-45,88,-66,-58,80,54,-33,-80,39,36,-72,17,14, 
  /* [7][1][][] */ 18,73,-99,-18,53,-34,-90,-22,-13,-7,-45,-59,-83,32,102,-54,-3,-57,-83,-83,26,61,-79,71,107,-64,9,59,33,76,32,6, -64,-70,40,1,12,-92,98,80,-51,-27,-47,-40,64,66,70,1,92,98,-20,-64,34,100,76,80,75,-89,-24,-7,51,-91,-101,-29, 78,36,-54,-68,103,-67,-89,73,109,103,-106,86,-102,-4,94,63,49,21,77,-70,71,105,-33,59,80,96,-22,86,94,-34,-37,22, 
  /* [7][2][][] */ 67,37,72,-95,93,18,96,-40,76,11,-56,-100,55,103,10,6,-62,-30,55,34,-84,-82,30,-39,4,-82,98,54,52,-68,34,17, -68,0,93,-79,50,-26,-85,11,-54,48,62,-71,-13,13,127,92,-60,34,-50,-39,-18,-25,-63,16,41,62,62,89,99,58,-38,-41, -51,-57,-44,-46,-76,51,52,-32,56,50,63,-68,-94,-43,-27,39,58,39,21,-37,-38,37,40,108,77,-60,-7,23,95,58,-78,-88, 
  /* [8][0][][] */ -58,-44,89,-21,-39,-13,-6,94,-4,-27,-77,100,127,37,47,66,21,-81,70,-86,-3,-59,105,47,-31,-76,-60,-58,53,-83,23,58, 86,-41,18,-18,65,70,-30,81,-30,67,-38,72,-33,-9,50,4,19,-18,-55,92,-84,-92,51,25,-37,68,27,-74,-77,-71,-75,-60, -24,-3,-66,-7,-70,-57,-41,-42,50,-47,33,-72,-42,15,-30,75,83,-53,71,-13,16,-87,50,91,91,87,84,-25,-60,-85,72,-54, 
  /* [8][1][][] */ 5,52,-70,8,-47,-42,-1,-72,-76,47,-34,33,96,19,-115,5,-60,-20,74,32,85,-63,-57,-2,-51,-59,-46,-81,28,97,53,-81, 79,11,-58,91,12,98,64,-86,101,-49,17,17,-20,-83,-24,-7,-52,-86,49,-33,23,39,77,106,93,84,-54,37,-37,-14,73,70, 108,33,62,38,38,-50,-78,64,-53,78,-10,63,33,108,-23,103,-81,-11,49,-54,-34,-64,87,-61,47,61,-53,-72,9,75,-86,31, 
  /* [8][2][][] */ 97,-41,-91,109,83,105,13,82,-46,38,-67,40,60,56,85,-22,110,-103,4,-55,-27,21,-76,-88,-60,-59,-64,-51,-50,26,-18,63, 5,80,-78,-80,108,-87,53,71,-51,-73,-63,-57,24,-10,43,5,106,-70,90,108,22,6,-72,-1,-77,-41,-8,87,-34,83,90,-12, 99,-70,42,8,-86,-90,-33,-18,-55,93,-1,-50,112,-27,21,-52,-6,11,-14,-52,45,43,-20,26,-67,97,72,64,57,-42,3,102, 
  /* [9][0][][] */ -20,-91,36,-18,84,80,-111,-20,-11,107,100,-84,39,52,112,-47,-72,-6,91,20,32,-14,42,34,-66,72,52,96,83,19,-23,-55, 21,39,21,26,-17,102,54,8,-23,-27,-26,0,44,60,-87,53,7,2,19,-7,-26,98,34,92,-66,-29,-90,-69,79,-26,49,100, 95,-117,-93,-91,23,48,22,-59,-6,55,63,-91,-59,61,-40,-90,-8,109,52,-35,80,-71,36,-30,83,97,77,86,-62,70,-73,33, 
  /* [9][1][][] */ -10,58,86,62,104,-78,13,-22,52,24,-62,34,58,-45,-19,-42,-72,51,-45,55,9,-37,92,65,-84,-60,34,-70,-56,50,15,75, 101,-36,-103,-51,-95,6,5,-11,109,47,14,-87,-63,-59,112,27,-29,-66,43,-93,48,-25,59,-31,-85,10,-32,-76,27,28,-84,-94, -10,27,-40,-49,-67,-56,53,-44,-20,-36,-21,-20,-111,99,17,47,122,-69,-27,14,-69,-26,-95,-49,98,-23,-10,-10,53,-37,12,-20, 
  /* [9][2][][] */ 43,18,-48,-24,72,8,39,-11,64,63,-1,-86,60,-3,8,-24,127,68,59,-17,107,28,47,113,28,102,-22,-89,-9,34,-28,-68, 116,-46,12,-37,114,-6,56,-82,-45,-38,-22,22,35,-31,52,76,-67,26,54,20,-62,41,61,53,47,34,73,7,-71,-12,-74,-53, 112,-59,-51,-45,63,21,-45,-49,34,1,65,-84,55,-41,34,108,24,84,-48,49,56,68,50,46,112,-15,47,-91,-34,-63,-23,40, 
  /* [10][0][][] */ 11,23,63,2,6,-82,-47,46,113,33,15,50,127,50,120,-76,32,8,3,-89,-45,-21,107,-26,69,88,80,75,-59,-32,-55,57, 44,-103,-49,9,7,-55,-93,11,-97,102,53,-70,53,-80,1,107,-2,-47,-64,109,34,23,22,51,60,-62,89,6,-85,28,1,-16, 54,30,96,-73,-68,-86,-53,-76,23,-60,58,55,-62,-9,-14,-2,125,4,26,-68,41,57,97,-88,-28,-39,97,14,77,55,-26,113, 
  /* [10][1][][] */ 52,-7,27,28,53,89,-52,109,59,86,-78,-36,-28,120,1,-25,89,-81,89,44,-72,-76,110,-13,51,50,-32,51,-80,104,76,44, 117,-64,81,16,-81,120,31,-101,-21,-7,-14,-13,-31,-68,115,-92,-46,57,74,-6,-45,-45,-70,10,-83,1,83,33,94,-83,-66,-22, 0,-33,41,57,-48,-60,-4,29,80,-81,4,45,-97,-4,66,4,-62,-48,-42,106,-51,-40,59,115,-70,11,64,-87,53,-91,60,-87, 
  /* [10][2][][] */ 96,-6,-77,64,-80,93,-14,15,-72,-30,-79,51,47,98,68,-57,71,-65,119,102,22,112,-26,67,70,-70,56,111,113,15,62,7, 26,-3,-5,60,67,-53,79,39,-42,23,-80,92,-14,-57,-68,69,19,-10,82,-73,-68,-89,49,101,57,-96,-76,-78,-95,33,-85,68, 95,9,-64,-9,-35,89,-10,-80,-29,41,85,42,25,51,-9,-90,83,-100,88,48,-49,26,-91,-85,63,70,-18,49,78,3,-68,29, 
  /* [11][0][][] */ 28,-72,-5,64,-19,-86,65,-2,-39,88,70,-48,-62,-1,30,116,54,31,-105,87,97,-84,75,41,-24,36,-47,49,9,89,13,11, -51,-58,115,42,-16,-4,28,-86,47,-51,-36,-66,39,46,51,33,-106,-111,-35,89,72,39,0,-84,-64,-1,9,-12,-41,-52,-61,-42, -75,11,71,67,78,-4,81,-42,66,40,-32,-102,38,-41,-78,27,57,-32,59,-13,-5,-20,-119,-4,-25,113,113,106,31,109,115,84, 
  /* [11][1][][] */ 111,37,-93,17,-58,5,98,13,72,-96,-77,-99,-101,115,-6,40,18,-81,-114,29,21,28,64,-46,-7,69,-51,-23,46,7,-101,-45, 71,-41,-79,-93,107,-76,-50,45,-56,-94,28,-93,110,-2,-41,18,30,-107,-66,-49,-112,-100,-33,-78,92,5,-13,-10,-79,23,52,52, -81,-33,-69,-89,101,-82,67,-36,-97,-57,4,-41,96,-48,-25,-100,-88,-96,6,17,-99,-5,14,25,56,-7,111,2,-35,49,101,35, 
  /* [11][2][][] */ -32,-32,-61,-55,64,-116,-63,-21,2,110,105,-95,-57,-24,91,3,109,53,-27,-20,-101,79,2,-35,-70,-41,-39,78,105,97,-65,-80, 59,-14,-111,-15,-51,104,14,66,-90,-47,-96,103,118,66,-59,-64,39,13,-104,-99,-53,102,-17,-6,63,20,-65,76,13,-59,-96,47, -39,62,65,-28,19,44,123,67,-34,-91,-93,-8,38,12,127,20,40,-74,78,-7,-55,33,-66,-90,70,8,-84,-50,-15,11,46,25, 
  /* [12][0][][] */ 59,16,-82,-21,44,71,44,-61,-18,0,78,6,88,-57,38,42,11,35,-41,-35,-17,53,-3,56,-62,49,15,25,38,72,-11,16, 48,-12,38,-89,24,37,-76,39,74,6,-80,37,36,-44,-80,55,-20,-50,77,19,-11,10,-28,71,-12,-45,-17,4,-42,-21,-46,-36, -30,51,-33,35,-33,-39,-67,-10,77,17,16,30,-25,36,-45,-25,30,22,-17,24,-73,81,-14,-71,-38,21,-75,23,-15,73,66,-24, 
  /* [12][1][][] */ -30,76,22,-81,16,9,4,32,19,76,63,74,127,21,43,-29,67,41,-4,82,83,53,-54,-35,-4,-28,-55,-26,81,1,-32,69, -13,91,48,33,0,38,-20,61,-52,61,-21,-75,57,43,-40,64,-20,-10,44,-2,73,-20,74,85,52,58,-8,-21,82,-17,-11,31, 59,62,-40,-31,-49,3,18,-58,68,21,-57,32,54,-45,-41,-72,88,-62,89,59,-64,-15,-43,-6,1,-3,61,-27,-49,78,57,-32, 
  /* [12][2][][] */ 19,-18,30,-75,77,27,87,-2,35,68,38,88,18,49,-94,-9,67,64,-4,-68,-17,77,71,63,33,57,-2,51,21,33,84,-50, 32,45,-70,32,-21,59,-2,-65,-24,-49,-60,44,56,50,-90,40,-48,78,-21,21,86,-7,47,-6,83,-10,-24,-30,-46,-21,13,68, 13,-32,-43,56,31,-42,-44,20,70,83,36,-20,15,63,-1,-8,12,-67,57,-55,11,-3,48,42,47,-16,71,38,-2,-7,77,92, 
  /* [13][0][][] */ -7,17,-70,85,-87,-79,-18,-89,-76,-36,31,-33,85,9,-79,-84,-24,-94,-72,69,-3,42,77,-38,78,-16,77,13,33,-1,106,69, -41,56,62,-87,-5,96,-33,54,126,-101,30,-68,-32,3,117,25,40,32,-23,-22,-35,50,109,16,53,-39,-37,-46,90,8,80,-72, -91,19,83,-19,77,56,-17,63,-45,-47,-38,117,74,28,25,11,-83,-88,-66,4,83,-90,-115,30,-78,-18,69,-4,62,51,27,117, 
  /* [13][1][][] */ 77,-60,43,-14,-33,78,-50,76,3,47,90,31,-21,-16,86,-108,75,-98,81,-16,27,-90,-105,-2,-76,37,77,-38,91,112,-72,33, 40,44,-81,31,-19,-13,-83,60,24,-38,84,3,-11,86,40,-15,-101,96,99,-33,-85,117,46,26,93,-118,-58,62,36,94,37,93, -13,-47,-68,-54,80,107,74,-89,94,57,-28,-93,94,-110,-63,108,2,105,98,-63,-52,-74,-62,82,125,-62,-45,94,60,-101,-23,-100, 
  /* [13][2][][] */ 113,-60,2,65,-106,86,69,-16,-46,-29,-75,112,-18,63,112,57,77,110,-98,-108,39,-77,-127,6,-98,-26,-56,115,49,18,-52,-92, 127,-95,-5,-28,-109,-22,-101,27,48,73,35,-50,40,-86,-89,66,-21,8,66,103,71,-23,77,100,-25,-16,19,-121,119,102,-53,-49, -9,-116,27,104,88,-100,-68,-34,-41,28,-66,-98,-13,-60,-92,-110,20,110,-88,-30,-98,112,-9,-105,11,22,59,105,58,29,23,-96, 
  /* [14][0][][] */ 0,28,50,43,-72,93,-32,-74,37,49,-75,21,127,6,-44,-32,-30,76,79,-50,-14,49,2,3,-59,1,81,-41,32,-34,57,21, -79,88,31,-25,-32,-46,29,71,51,93,-76,74,20,-75,11,5,68,24,26,85,-23,-45,-24,66,63,83,88,-21,51,-66,-56,107, 49,23,74,-25,75,32,19,-45,-2,43,34,55,51,-52,-84,6,84,-54,3,96,40,35,-76,56,42,44,34,18,-3,29,-74,-7, 
  /* [14][1][][] */ 56,77,2,-52,74,-57,54,-6,65,59,80,19,0,-29,26,15,-79,72,90,2,21,87,38,14,-5,74,-42,83,30,62,73,61, -85,63,57,-59,45,72,76,28,19,-60,25,1,-63,95,-13,-34,31,-85,87,4,49,-36,-34,5,91,32,37,47,32,-70,80,19, -68,-63,-56,-87,-35,71,-70,41,55,-8,28,-59,120,-48,-103,-12,3,30,54,-66,11,40,-55,45,34,18,-80,-64,-9,61,53,-55, 
  /* [14][2][][] */ 15,-12,74,90,-31,-68,-63,3,78,-62,-13,-25,31,-16,-110,-2,28,-15,3,-11,66,-69,-17,25,84,-88,83,22,-42,51,-67,-28, -81,32,46,-41,-64,-19,-44,52,14,-24,56,48,72,-5,-33,-66,30,61,20,-72,5,-16,66,-14,85,-21,-3,33,59,-25,-29,-4, -29,38,19,34,-50,99,50,-7,83,-17,0,-33,122,8,10,22,-64,-39,-32,84,10,26,-36,69,-42,-78,-43,61,-1,37,-68,109, 
  /* [15][0][][] */ 98,44,-25,77,-73,-116,-94,-26,-30,21,-10,-108,94,83,115,5,85,-83,51,-103,-40,42,-78,36,-6,30,19,-112,-67,-57,23,-41, -1,46,-54,-70,-46,72,30,121,23,-78,34,-65,-10,103,96,42,-93,-26,20,21,57,-2,-123,51,104,84,114,-42,43,9,-42,-45, 65,-28,-75,-19,-32,80,94,108,110,-124,0,22,96,-16,-41,109,-121,48,19,46,13,42,69,54,118,-28,-54,-41,-75,-121,-64,83, 
  /* [15][1][][] */ -84,-13,54,-39,-85,-120,-95,-109,56,69,62,-88,45,47,94,43,80,41,115,-36,-102,-34,94,-41,46,-92,19,85,106,3,-8,-94, 40,109,25,54,-89,-101,-84,-52,-99,10,-17,25,-89,2,18,-80,-102,-18,-113,56,-14,41,46,-67,86,-17,-26,122,-46,-84,67,49, -80,28,59,18,44,-13,1,-124,111,-93,37,-59,26,36,-87,-40,-31,-21,-83,16,-25,-73,11,-49,-41,-18,-106,-81,63,66,-74,127, 
  /* [15][2][][] */ 110,-102,93,79,90,-25,120,116,-116,-51,-40,-92,20,-65,58,23,70,-99,122,-104,51,-60,-58,-82,88,-94,-42,-120,-91,34,-117,-11, 81,83,13,112,8,59,-28,62,-51,-122,66,-15,110,-88,-27,36,-95,75,-1,-102,-53,-16,-101,30,80,38,68,-36,123,28,-59,59, 106,-69,115,48,3,-63,-49,23,76,41,103,-21,-12,25,81,90,114,91,-80,59,-33,122,56,-104,51,-113,33,-26,-57,-81,-55,-4, 
};
const TfArray<4, int> tensor_dimension4 = { 4, { 16,3,3,32 } };
const TfArray<16, float> quant4_scale = { 16, { 0.0011867803987115622, 0.0010214293142780662, 0.0011207618517801166, 0.0012127336813136935, 0.00106719636823982, 0.0010054402519017458, 0.0010893406579270959, 0.0011089842300862074, 0.0011567380279302597, 0.0011108759790658951, 0.0010823914781212807, 0.0010610895697027445, 0.0014243614859879017, 0.0010122189996764064, 0.0013478717301040888, 0.00093712448142468929, } };
const TfArray<16, int> quant4_zero = { 16, { 0,0,0,0,0,0,0,0,0,0,0,0,0,0,0,0 } };
const TfLiteAffineQuantization quant4 = { (TfLiteFloatArray*)&quant4_scale, (TfLiteIntArray*)&quant4_zero, 0 };
const ALIGN(16) int32_t tensor_data5[16] = { -1339, 2178, -1078, -1243, 440, -1509, 2307, 2152, 1660, 2278, 2507, 2860, -663, 2460, 981, -833, };
const TfArray<1, int> tensor_dimension5 = { 1, { 16 } };
const TfArray<16, float> quant5_scale = { 16, { 4.6748687054787297e-06, 4.0235313463199418e-06, 4.414814156916691e-06, 4.7771018216735683e-06, 4.2038132050947752e-06, 3.9605483834748156e-06, 4.291041932447115e-06, 4.368420377431903e-06, 4.5565284381154925e-06, 4.3758723222708795e-06, 4.2636684156605043e-06, 4.179757979727583e-06, 5.6107287491613533e-06, 3.9872506931715179e-06, 5.3094267968845088e-06, 3.6914445900038118e-06, } };
const TfArray<16, int> quant5_zero = { 16, { 0,0,0,0,0,0,0,0,0,0,0,0,0,0,0,0 } };
const TfLiteAffineQuantization quant5 = { (TfLiteFloatArray*)&quant5_scale, (TfLiteIntArray*)&quant5_zero, 0 };
const ALIGN(16) int8_t tensor_data6[3*9216] = { 
  -26, -47, -47, 12, -34, -16, -4, -3, -40, -26, -22, 5, -6, 16, -39, -19, -35, -1, -41, -42, -13, -3, 11, 13, -9, -20, 2, -30, -19, 18, -126, -8, -6, 17, -12, -44, -34, 12, -41, 2, -7, -49, 15, -35, -11, -49, -69, 26, -27, -37, -1, -26, -24, -4, -10, 19, -42, -30, -41, -47, -46, -44, 6, 11, 9, 10, -10, -18, 42, -1, 20, -17, -32, -40, -13, -27, -30, -29, -12, 14, 17, 8, 14, -29, 38, -43, -11, -3, 8, -32, 32, 16, 17, 20, 45, -9, -16, -14, 18, 36, -1, -34, -2, 28, -10, -36, -31, -12, 10, 19, 11, 27, -20, -33, -1, -19, 56, -7, 19, 12, -17, -22, -21, -50, -11, 15, 23, -27, -22, 14, -15, 36, 41, -13, -12, 30, -19, -12, -4, -2, 33, -30, 3, 12, -17, 17, -27, 40, 32, -28, -33, 1, 37, 7, -14, -16, -18, -23, 31, 20, 6, 14, 11, -20, 8, 30, 21, 18, -5, -25, -16, 12, 21, -14, 78, 11, -13, -14, -21, 31, 56, 17, 7, -19, -26, -43, 2, -35, 23, -29, 23, 5, -2, -7, 21, -5, -15, 39, 32, 32, 0, -28, 15, -42, -23, -32, 2, 30, -19, -24, 18, 40, -12, 14, 18, -4, 14, 17, 17, -50, 15, -43, 40, -16, -41, -24, 33, 4, 37, 11, -50, 14, -4, -36, 4, 15, 32, -23, -12, 12, -19, -24, 18, -17, 31, -21, -49, -44, 4, -12, -38, -19, -24, 3, -10, 21, -11, -3, -7, -28, 23, 13, 4, -19, 17, -23, 17, 26, 11, 8, 15, 7, 6, -18, -36, -43, 32, -32, -10, 23, -14, -20, 45, -27, 5, -36, 12, -13, 19, -39, -23, -24, -20, 16, -14, 8, -23, 3, 12, 10, -22, -30, 30, -28, -11, -11, -3, 7, 18, -3, 25, -2, -45, 4, -9, -12, -2, 17, -11, -14, -45, 17, -39, -34, -19, 14, 12, -43, 1, -21, 5, -18, -6, -12, 4, -19, -22, -43, -22, 8, -31, -32, 17, -19, -39, -4, 5, 23, -5, -23, -6, 9, -16, 2, -1, 3, -44, -30, -21, -33, 18, 0, 15, 2, -45, 0, -49, 25, 14, 9, -27, -5, -39, -18, -4, 10, -16, -31, 7, -46, -7, 25, 5, 33, -21, -15, -7, 5, -89, -23, 14, 4, 12, -6, -24, 10, -25, -14, -127, -14, 19, -10, 11, -13, -17, -5, 15, -11, -9, 13, 4, -8, -24, -14, -81, 9, -14, -14, -7, -25, -46, -14, -32, -28, 11, -43, -18, -22, 6, 9, -87, 16, 0, -25, -34, -39, -13, 9, -8, -31, -7, -7, -30, -23, 19, 13, 2, 13, 17, 18, -23, -44, 27, -13, 11, -14, 18, 6, -33, 8, 14, -11, -8, -31, 16, -32, -40, -8, -21, 4, 39, 36, -12, -13, -36, -21, -9, 2, -3, -7, -1, -38, 10, 10, 2, 19, 31, 15, -45, 3, 5, -50, -8, -22, 51, 7, 27, 17, -32, 6, 20, 8, -11, -17, -11, 16, 20, -41, -16, 20, 18, -17, -2, -6, 18, 27, 57, -7, -23, -28, 23, 18, -16, 9, -30, -16, 15, 6, 11, -43, 20, -11, 36, -3, 30, -24, -37, 12, -32, -31, -29, -17, 10, -32, 39, -15, 12, 31, -1, -20, 1, -4, 0, -5, -18, -11, 8, -10, -2, 28, -23, 23, -28, 31, 24, -28, 33, 12, -23, -39, -1, -36, -14, 20, -23, -7, -16, -26, -10, 2, 27, 34, 7, 13, -26, -21, 24, -14, -8, -18, 27, -7, -38, 25, -25, -28, 56, 17, -23, 18, -19, -19, 40, -10, 10, -2, 19, 7, -11, -38, -8, -22, 46, -33, -35, -4, -34, 12, 34, 14, 29, -30, 30, -34, -5, 10, -19, -2, 25, -35, 2, -41, 14, -32, 20, -8, 3, -15, 29, 11, -24, -40, -4, -3, -4, -30, 28, -37, -33, -20, 1, -24, 3, 6, 7, -33, -41, -44, -2, -10, 24, 6, 4, -34, -28, 27, 36, -18, -26, 22, -27, 3, 4, -18, 2, -9, 9, -48, 5, -18, -32, -4, 2, 15, -7, 21, 7, 32, 6, -4, -33, -18, 0, -32, 18, -33, -21, -23, 38, 10, -44, -11, 40, 1, -27, -6, 17, -32, 14, -29, 40, 5, 13, -8, -28, 8, 16, 18, 43, -25, 38, 5, -5, -1, -23, -9, 32, -7, 19, 13, -27, 8, -32, 32, 23, 2, 28, -32, 4, 2, 33, -39, 21, -32, -37, -9, -35, -18, 19, 13, -38, -22, 17, -34, -3, 3, 18, 14, -32, 15, 4, -25, 14, -9, 12, -32, 32, 20, -33, -44, -44, -3, -64, -6, -24, -27, -37, 12, -22, -3, -25, -29, -65, -3, -38, -32, -43, -20, -27, 6, 20, -26, -43, -7, -31, 13, 4, -13, -46, 30, -19, 2, -32, 0, -41, 5, -10, -28, -39, -44, 20, 16, -46, 15, -54, -22, -15, -32, 0, -48, -20, 3, 4, -31, -34, 1, 11, -16, -10, -36, -39, -4, -11, -29, 18, 1, -10, 2, -19, 6, -17, -13, -10, -20, -8, -22, 19, -5, 24, -51, 14, 9, 0, 3, -7, 37, 25, -12, -35, -47, 18, -16, 39, -4, 2, -48, -5, 11, -45, -23, 16, 29, -5, -18, 19, 9, -10, 15, 34, -1, -7, 2, 30, 27, 14, 2, -9, 3, -16, -31, 18, -36, 14, 20, 44, -18, -22, -24, -5, -5, 21, -19, 3, -6, -7, 17, 18, -32, -29, -6, -9, -24, -18, 12, 38, -29, 7, 14, -5, 20, -2, -7, 18, -6, 20, -21, 17, -2, 11, -39, 34, 6, 21, -4, -9, 21, -25, 4, -16, -16, -1, 31, 45, 4, -11, -34, -1, 8, 25, 3, -14, 19, -16, -27, -13, -4, 1, 5, 30, 25, -1, 17, 1, -1, -24, -22, 49, -8, -31, 8, 10, -17, -23, -12, 32, -32, -29, 22, 36, -32, 15, 11, 45, 12, -17, -46, 28, -46, 19, -13, 11, 2, -16, 21, -21, 21, 39, 1, 16, -46, 22, -16, 4, -45, -25, -24, -3, -31, -22, -40, -18, 19, 39, -16, -9, 19, 6, -18, -16, -8, -21, -10, -1, 0, 37, -9, -4, -9, 21, 3, -1, -9, 10, 27, 7, -3, -32, 17, 1, -34, 0, 8, 14, 13, -13, -6, 22, 3, -8, 35, 35, 9, -35, 38, -19, 20, 18, -45, -31, -35, -21, 15, 14, -20, -10, -2, 0, -23, 7, 2, -10, 5, -45, -3, -22, -45, 2, -49, 17, 5, -24, 16, 18, 23, -28, 18, -6, -25, -32, -1, -30, -12, -32, -7, 24, 27, -50, -27, -25, 23, -25, 36, -32, 21, -19, 7, -42, -9, -24, -35, 26, -31, -30, 10, 1, 20, 4, -20, 8, -22, -20, 8, -10, 8, -16, -26, -23, -27, -13, -9, 13, -19, -15, -30, -19, -11, -17, -39, 13, 13, -26, -26, 6, 20, -37, 15, -2, -34, -28, 31, -7, 14, 10, -36, -35, -7, -35, -3, -17, 7, -41, 14, 1, -36, 15, -3, -67, -2, 18, -5, 5, -24, 4, 8, -36, -8, -19, 1, -17, 16, 1, -2, -59, 14, 8, -48, -31, -25, 16, 15, 11, -8, -35, -7, -14, -11, -31, -31, -56, -14, -14, -12, -46, -47, 8, -49, 4, -15, -13, 2, 3, -32, -33, -10, -18, 17, -35, -43, 8, -23, -16, 14, 11, -35, -15, -40, -24, -46, -14, -36, -14, -24, 18, -5, -18, 13, -27, 9, 25, 25, 28, -35, -16, -36, -1, 13, -4, 13, -1, 8, -27, 4, 12, -13, 28, -29, 18, -14, -5, -5, -41, 10, 27, -14, -15, -29, 0, -41, 26, -10, 45, -27, -22, -14, -17, -26, 20, -21, 16, 12, 24, -8, 16, -35, 0, -36, -14, 28, 7, -27, 26, -30, 1, -5, 2, -7, -20, 10, 8, -36, 4, -23, -8, -4, 21, -15, 32, 9, -39, 2, -7, 24, 15, -45, 16, 23, 10, -34, 36, -44, 8, 17, -18, -29, -1, 12, 21, -14, -30, -17, -10, 6, 28, -18, 25, -21, 9, -2, -20, -35, -37, 37, 12, -29, -9, -33, 5, -14, 36, -18, 3, 7, 20, -4, 20, -17, -45, 13, 6, 1, 21, 16, 20, -7, -25, 8, -16, 13, 29, -21, 17, -5, -46, 22, 23, 28, -17, -38, 20, -32, -34, -39, 16, 20, -20, -16, -10, 9, -10, -12, 28, 13, 18, -45, -32, 6, -61, -43, 9, -18, -12, 44, -19, -49, -18, 5, 25, -29, -32, -27, 18, -47, -2, 9, 23, 21, 15, 16, 25, -31, 12, -2, -14, -28, -22, -3, -5, -11, 31, -47, 48, 33, 23, 3, 20, -4, -24, -18, -3, 27, -42, -8, 8, -47, 15, -22, 16, -10, -33, -13, -5, 23, -22, 34, 29, 0, 16, -29, -30, -34, -29, -16, 44, 31, 23, 18, -13, -7, -8, 28, 42, 29, -41, 8, -37, 14, 3, -44, 11, -5, -12, 14, 7, -11, -19, 12, -27, 18, 4, 12, -47, 15, -19, 10, 18, 16, -1, -22, -2, -15, 15, 7, -21, 10, 19, -48, -27, -31, -25, -43, -21, -5, 7, -34, -1, -16, 17, -11, -15, 35, -20, -25, -7, 12, 5, 7, -32, -4, -29, -25, -39, 28, -32, 11, 7, 29, 11, -51, -20, -34, -1, -3, -45, -20, 22, 42, 21, -43, -25, -10, -75, 39, 20, -44, -28, -28, 0, -33, 23, 26, 19, 11, 8, -42, -46, -29, -98, -11, -19, 7, 1, -32, 5, -13, 26, -15, 11, -22, -27, -26, 0, 5, -49, -26, -21, -50, 13, -41, -34, 3, -33, 9, 0, -7, -37, -2, -18, -35, -2, -2, -19, -13, 4, -30, -27, -27, -23, -32, -33, 17, -25, -4, -20, -31, -6, 11, -31, -32, -11, -11, 4, -16, -2, -4, -26, -31, 10, -27, 0, 6, 11, 4, -14, -42, -13, -29, -21, -40, 1, 12, 27, -9, -24, 11, 2, 0, 18, -1, -46, -21, -11, -50, -9, -17, -23, -29, -22, -40, -10, 1, -10, -21, -27, -19, -42, -46, 14, -23, -5, -1, 30, 10, 7, -22, -22, -37, -6, 27, -19, 3, 1, -7, 4, 1, 16, 5, -22, -10, 20, 12, 19, 4, -3, -5, 32, -13, 25, -34, -26, -43, 38, 7, 28, 8, 38, -35, -33, -26, -3, 24, 25, -26, 18, 10, -46, -6, 2, -27, 19, 0, 23, -5, 24, -33, -30, -34, 18, -24, -45, -31, -26, 3, -20, 10, 17, -29, 5, -42, 30, -6, -25, -4, 5, 15, 5, 15, 16, -28, 27, -16, 3, 15, -6, -3, 5, 0, -13, 19, -11, 21, -16, -34, -50, 10, -26, 2, 20, 13, 17, 1, 3, -50, -1, 6, -17, 3, -4, -41, -12, -47, -6, -27, 43, 20, -8, -2, -11, 10, -14, -1, 13, -28, -2, -47, 12, -32, -18, -11, -5, 40, -16, 1, 37, -37, -2, -28, 12, 4, -31, 18, 1, -20, -26, 13, -21, -1, -6, 12, 7, 19, 16, -25, 14, -33, -35, -38, -10, -51, -7, -9, 10, 3, 2, 2, -5, 25, -41, -6, -22, 34, 18, 8, -43, -6, -42, 16, 19, -18, -7, 6, -31, -35, 18, 18, 40, -25, 31, -39, -4, -29, 18, 8, 42, 17, -4, -44, -42, -16, -30, 16, -15, -31, 0, -5, -30, -40, -4, -25, -17, -23, -48, 9, -36, 12, 5, -12, 10, 28, 16, 1, -6, 9, -17, -37, -20, -7, -25, -41, -12, -21, 22, -31, -32, -8, -21, -36, 15, -22, 13, 1, -18, -30, 10, -35, -5, -35, -16, 17, 7, -7, -20, -17, -25, -19, 36, -34, -29, -22, -24, 0, 28, -5, -43, -28, 22, 29, -31, 8, -30, -36, 43, 8, -40, 37, 15, 15, 1, -23, -32, -9, -39, 15, -24, -21, -6, -13, 14, -12, 31, -13, -43, -50, 15, 11, -16, 4, -76, 12, -40, -34, -29, 6, 12, -36, 22, -49, -3, -18, -14, 2, -31, -6, -12, 19, 14, -18, -11, -8, -33, 6, -20, 18, -37, -15, 0, 4, 4, 21, -3, -29, -19, -46, -22, -29, -16, -3, -20, -50, -24, -21, -35, -8, 9, 18, -22, -20, 1, -41, 3, -37, 24, -31, -46, -14, 14, -44, 3, 15, -32, -14, -33, -17, 7, -44, -39, 16, 35, -9, -38, -13, 27, 0, -1, -21, -35, 1, 15, 23, 14, 4, -5, -28, -38, -37, -31, 12, -16, -11, -26, -5, -21, -8, -15, -12, -7, -37, -45, -7, 3, -23, 11, -24, -27, -8, -1, 16, -12, -28, 9, -20, 20, -31, -31, -15, -8, -18, -39, -25, 46, -29, -3, -36, -7, 17, 35, -33, -26, 7, -40, 6, 3, 8, -43, -10, 18, -38, -13, -43, -33, 15, 9, 18, 16, 16, 0, 3, 37, 5, -38, -30, -8, -13, 24, -26, 1, -39, 33, -33, -23, 3, -8, -12, 4, 4, -32, 11, 29, 18, 22, -52, -20, -30, -18, 3, 1, -27, -5, -49, -73, -41, -2, -30, 1, 10, 12, -10, -16, -29, 26, 9, -17, -34, -9, -13, -24, -39, 28, 29, -21, 6, -28, -22, 20, 32, 22, -19, -24, -3, 16, -37, 0, -14, 4, 33, 18, 41, -15, -41, -6, -10, 31, 16, -33, -2, -6, 14, 26, -6, -14, 26, 13, -23, 20, 7, 9, -7, -45, -26, -27, -18, -43, 4, 32, -45, -26, 41, 2, 4, 28, -16, -25, -40, -25, -14, 3, -13, 7, -3, -10, -29, 37, -3, 13, -45, -4, -27, -38, 17, -5, 34, 29, -19, -42, 7, -4, -14, -12, 6, -7, -10, -32, 4, 5, -38, -45, -22, -18, -46, -27, -45, 15, -19, 26, -3, -2, -3, 15, -16, 11, -38, -22, -30, 15, -25, -4, -42, -25, -4, -19, -1, 22, -40, -35, -21, -37, -48, -7, 10, -9, -12, -35, -27, 26, -18, -37, -6, -30, -24, -52, -34, 19, -9, 41, 24, -20, -14, 8, -29, -44, -22, 5, -4, -2, -7, -17, -25, -32, -45, -25, 18, 17, -24, -49, -4, 23, -38, -3, -1, 5, 30, -4, -20, 5, -10, -9, 17, -48, -13, -38, 6, -5, -26, 18, 4, -12, 47, 33, 20, -18, -39, -38, -31, -7, -24, -3, -14, -5, 14, -6, 7, 0, -44, 14, -34, 15, -23, -37, 35, -8, -26, 15, -2, -9, -23, -38, -36, 0, 14, -8, -27, -28, 20, 4, 25, -4, 2, 1, -28, -10, -48, -17, -41, 20, 5, 18, 5, -20, 20, -7, 6, -41, 11, 2, -35, 17, -22, 6, -30, -26, -24, -26, 12, -22, 19, 23, 27, 4, -40, 3, 19, -9, -9, -43, -19, -20, -41, 17, 5, -46, 11, 8, -29, -45, -6, -17, -42, -22, -31, -16, -6, 3, -44, 22, -48, -39, -42, -5, 7, -1, 14, -32, 17, -21, 9, 27, -50, -10, -34, -4, -37, -6, -41, 46, 18, 19, -33, -47, -39, 29, 13, 24, -9, 13, -27, -6, -42, -13, -3, 5, -28, 0, -20, -48, -12, 22, -41, 12, -34, -6, -2, 18, -9, -43, 21, 24, 11, -6, -40, -27, -34, -8, 17, 0, -32, 38, 6, 34, -14, 14, 7, -17, -31, 19, -14, -25, 7, 8, 17, -40, -8, -13, -36, -10, 11, -3, -38, -58, 12, -17, -16, 3, -4, -11, -35, 4, 13, -20, -2, -23, -2, -36, -7, -75, 10, -2, -12, -30, -38, -8, -39, -31, 11, 31, 6, -18, -26, -38, 25, 3, -29, -5, -15, -36, -50, -24, -3, -11, 43, -10, 29, -3, -8, 14, 17, 4, -4, -2, -45, 10, 5, 2, -1, 29, -17, 25, 1, 17, -33, -38, 23, -6, -30, 15, -33, -16, 8, -6, -15, -33, 3, 21, -15, -28, -7, -31, -18, -50, 19, 20, -46, -39, 3, -20, -34, 37, 28, -6, -29, -34, 12, -12, -7, -57, 21, 33, -8, -16, -12, -43, -45, -16, -20, -50, -3, -13, 16, -20, -34, 13, -35, 28, 1, -22, -11, -20, -35, -9, -18, 3, -25, -48, -8, -14, -31, 13, -25, 14, -5, -9, 6, 2, 23, -11, 1, -26, -36, -8, 16, -16, 6, -30, -12, -15, -6, 25, -5, 2, -4, -28, 26, 5, -26, 27, 13, -11, -20, -15, -32, -4, 9, -3, -19, -109, -15, -10, 24, -16, -4, 17, -26, -30, -40, -20, 9, -6, 1, -18, -15, 16, 19, 30, 50, -7, 45, 29, 12, -2, -10, -8, 30, -5, -8, 1, -33, -32, 21, -1, 43, -13, -8, 17, 8, -16, 5, -53, 2, 8, -43, -9, 14, -27, -28, 6, 4, -22, -33, 8, -28, 0, -2, 26, -15, -13, 14, 1, -8, -19, 3, -14, -40, -13, 15, -20, -41, -5, -31, 51, -1, 0, -38, -1, -16, 43, 21, -17, -43, 39, -8, 35, -51, -40, -23, 0, -9, -36, 4, -28, -44, 36, -15, -6, -14, 26, -49, -16, 11, -10, 16, 17, -34, -27, -33, -45, -3, 43, 11, -37, -34, 43, 6, 13, -16, 18, -44, -13, -14, 14, -47, -28, -38, 25, -16, -20, -37, 18, -7, -36, 3, -35, -11, 8, 3, -22, -2, -30, 10, -14, -39, 21, -25, 23, -21, -9, -8, 10, -43, 33, -34, -14, -50, -25, -36, 9, -11, -6, 21, 16, -13, 17, 17, 9, 16, 34, 23, -41, -2, -11, -29, -10, 1, 16, -36, -11, 4, -19, -30, 21, -28, 1, -3, -22, -18, 6, -44, 5, -39, -23, -10, 41, -44, 33, -12, -5, -16, -35, -27, -41, 4, -19, -16, 25, -1, -37, 34, 32, 20, 7, -40, -24, -5, -3, 3, -39, -43, -12, -38, 17, -46, 27, -8, -9, 10, -5, -25, -8, 5, 24, -1, -48, -17, 6, 16, -8, -49, -20, 50, 44, 0, 44, -41, -27, 28, -42, 13, 18, 2, -29, -45, -1, -36, -19, 41, 46, -4, -2, 19, -7, 15, -62, -18, -9, -41, 6, -10, -24, -21, 1, -6, 32, -1, -9, -31, -19, -16, -84, -18, -29, -8, -23, -39, 15, -39, -29, -9, 10, -15, -13, -22, -47, -3, -93, -7, 24, -27, 11, -9, -18, -34, 2, -18, 3, -8, -42, -33, -46, -5, -66, -31, -18, 9, -4, -23, 10, 18, -3, -17, -9, -3, -13, 1, 16, -36, -4, -20, 20, -1, 8, -32, -29, -22, 20, 30, 6, -46, -18, -15, 14, -5, -13, 26, 25, 5, 0, -34, 24, 25, -14, -15, -23, -19, -4, 1, 0, -31, 3, -27, 14, -31, 26, -13, -19, 11, -47, 1, 3, 21, -25, 12, -12, -23, -1, -9, 4, -13, -40, -14, 12, -25, -34, -19, 18, 33, -6, -38, -12, -23, -90, -13, 21, -22, -15, -29, 18, -12, 19, 21, 11, 25, 10, -3, -5, 28, 26, -15, 0, -47, -31, -33, 19, 18, 5, 48, 5, -6, -21, 20, -37, -18, 8, 28, -6, -1, -47, 15, -37, -7, -14, -2, -17, 34, 5, -23, -45, -24, 1, -12, 31, -8, 10, -24, -2, -27, 24, 38, 37, -47, -35, 7, 7, -23, 8, 25, -10, 1, 13, -2, -20, -11, -35, 1, 45, -24, 11, -33, -40, -3, 28, 21, 8, 17, -7, -25, 32, -19, -13, -32, 29, -35, -20, -10, -32, -31, 48, -14, 2, -47, -26, -25, 33, 18, -27, -37, 7, -28, -21, 5, -47, 12, 11, -9, -34, -29, 18, -13, -12, 13, -21, 6, 5, 3, -27, -17, -6, -13, 54, 11, -13, -4, -37, -43, 30, -36, -29, -40, 27, -32, -29, -3, -42, -26, 50, 1, -21, -1, -34, -14, -18, 15, 1, -39, 40, -15, -24, -4, -27, -1, 61, 17, -18, -20, 5, -39, 28, 18, 18, -20, 7, -20, -26, -33, -33, -42, 58, -30, 12, -9, -35, 1, -24, -5, -38, -23, -16, 3, 15, -5, 21, -38, 26, -26, 4, -10, 9, -40, 25, -3, -21, -12, -7, -4, 27, -20, -35, -8, -13, -4, -20, -30, -24, -40, -12, -1, -19, 39, 17, 12, 2, -43, -22, 17, -44, -15, -14, -3, -14, -7, 28, 6, -3, 11, 42, 32, 17, -2, -2, -15, 6, -27, 12, -21, 2, 18, 22, 5, 34, 18, 0, 2, -10, -7, -5, 17, -32, -28, -21, -27, -35, 6, 5, -34, 15, 27, -22, 17, -5, 13, -6, 14, -63, 34, -7, 8, -40, -39, 17, -1, -27, 36, 5, 35, -10, -31, -18, 21, -84, 14, 14, -38, -41, -10, 8, -23, 2, 1, -3, 25, -14, -5, 17, -11, -1, -19, 14, 12, -24, -29, 19, -37, -31, -11, -41, 7, -6, 12, -48, 5, 4, 23, 22, 0, -6, -26, -23, -23, -11, 14, 6, -19, -20, -21, -43, -14, -31, 30, -15, 9, 7, 12, 14, 14, -12, 22, -9, -20, -3, -30, 4, 6, -9, 7, -8, -26, 6, 3, 7, -35, -41, 5, -36, 2, 37, -3, 15, -31, 6, -2, -46, -25, -27, -49, 3, 2, 13, 30, 7, 6, 2, 4, 6, -31, 3, 7, 28, 12, 17, 5, 13, -1, 31, 42, -3, -14, 32, 29, -18, 27, 5, 7, 9, -34, -36, 15, 24, -37, 18, 38, -1, -12, 16, 30, -34, 3, -26, 8, -8, -14, -24, -26, 22, 10, -19, -21, 13, 1, 28, 21, -3, -4, -1, -18, -11, -35, -30, 19, 0, 22, -6, 0, -16, -28, 19, -35, -20, -2, 30, -2, 36, -3, -14, 34, -4, 11, 11, 42, 42, 0, 13, 4, -28, -2, 19, 26, -4, -39, -39, 31, 10, -27, -7, 19, 41, -39, 0, 7, 25, -12, -17, -13, 13, -42, -48, 12, 11, -13, -19, 15, 28, 4, -15, 12, 28, -34, 53, 4, 20, -38, -25, 28, 33, -8, -32, -8, 38, 6, 39, -2, 3, -16, 0, 13, -3, 2, -10, 22, 2, -33, -15, 19, 38, 5, 6, 2, 26, 5, 39, -2, 31, 0, -21, -30, -15, 14, 0, -28, -14, 14, 46, -22, 5, 10, 29, -31, 25, -9, -19, -19, 42, -7, 10, 15, 8, 5, 13, 8, 0, 12, -10, -26, -18, 21, 19, -27, 10, -38, -37, 4, -7, -8, -12, -43, 15, 14, -29, 17, -33, -33, 19, -35, -5, -26, 3, 19, 13, 7, 49, -28, -20, -30, -31, -12, -28, 13, -50, -3, -14, -9, 18, 4, 44, 45, 32, -46, -5, -39, -14, 34, -11, 19, -31, -43, -18, -24, -7, 19, 26, 6, -4, -25, -46, -32, -16, -24, -2, -28, -40, 13, -15, -15, -28, -11, 9, 2, -3, 19, 11, -10, -2, 24, -35, -21, 12, -26, 25, -33, -7, 53, -19, 34, 42, -35, -28, 6, -48, -3, -26, -43, -37, -37, -34, -18, -23, 49, 9, -22, -44, -40, -44, -13, -30, 11, 3, 0, -8, -42, 0, -12, -43, -13, -14, -45, -50, -44, -28, 12, -18, 19, -19, -44, -12, -17, -4, 10, -8, -3, 3, 9, 5, -40, -22, 19, -9, -9, -7, -30, -11, -4, -7, -37, -4, 6, -13, 23, -43, 9, -18, -44, 13, -27, 1, 22, -6, -2, -24, -19, 1, 44, -11, 3, 39, -42, -8, -41, -13, 8, 10, 19, -41, 24, 7, -34, 14, -5, 12, 10, -5, 8, -41, -32, 13, -33, 6, 11, -20, -38, -3, 21, -34, 6, -18, 24, -15, 23, -3, 12, -6, 5, -9, 7, 12, -37, 9, -28, 14, 2, 14, -12, 17, 29, -36, 5, -21, 35, 10, -17, -36, -39, 31, -18, 15, 47, -19, 29, -18, -1, -23, 4, 25, -19, 45, -5, 24, -29, -40, -9, 19, 30, 1, -11, -46, -21, -28, -20, 16, -1, -5, -33, -33, -27, -12, 16, -35, -11, 10, -16, -27, -42, -12, -28, 43, 11, 39, -1, 28, 5, -15, 1, -1, 14, 44, -42, -16, -20, -3, -17, 30, 9, 24, 13, 17, -23, 37, 12, -4, 22, 29, -44, 15, -17, 14, -39, 34, 14, 12, 21, 3, -5, -3, 14, -15, -10, 5, -9, 34, -42, 19, 21, 48, 3, 12, -19, -36, -1, -8, 26, -6, 34, -1, -22, 23, -37, 29, -26, 9, -17, -17, 3, -3, -26, 6, -16, 18, 11, 8, 1, 17, -35, 28, 14, 62, 5, 15, -40, -42, 42, 42, -6, -37, 14, -6, -45, -23, 15, 36, -30, 30, 20, 45, 14, -16, -14, 3, -26, -45, 45, -21, 8, 34, 13, 0, -41, 13, -19, 24, 31, 17, 2, 44, -24, -46, 23, 18, -32, -25, -31, 17, -40, 29, -24, -19, 5, -16, -16, -3, -20, -35, -11, -13, 19, 49, -43, 14, -15, 29, 20, 10, 6, -27, -15, 10, 23, 6, 26, -14, -11, 40, 18, -17, 25, 20, -30, 13, 12, -17, -10, 19, 10, -12, -16, -11, -14, 37, -8, 18, -19, -23, 27, -12, 23, -33, 12, 27, 1, -22, 25, 26, 2, 22, 16, -20, -5, 4, -20, 1, 12, 16, -2, 11, 26, 26, -1, -22, -18, 4, 9, -35, -21, -17, 2, 15, -33, -26, 7, -34, 23, -6, 2, 31, -21, -39, -37, 11, -31, -31, -33, 6, 5, 4, -34, 24, 10, -11, 18, 0, -4, 3, -6, 25, 9, -4, 33, 38, 13, -31, -39, 11, 9, -50, 11, -23, -3, 7, -24, 20, 14, -45, 23, -25, -4, -5, 17, -4, -3, -28, 37, 27, -23, -14, -40, 13, -49, -34, -18, -2, -24, 9, -17, 39, -14, 27, -5, 4, -7, 35, 3, -43, 24, 29, 30, -28, -21, 10, 2, -26, 0, -16, 37, 9, 7, 22, -15, -44, 20, 30, 17, -14, -3, -28, 9, 40, 9, 12, -2, 29, 44, 33, 24, -37, -18, -30, -8, 11, -27, -15, 7, -19, -26, 27, 19, -8, -1, -8, 38, -7, 29, -30, 27, -13, 11, -41, -24, -15, -29, 8, -19, -15, 34, 39, 13, -17, 26, 42, 34, 28, 7, -4, 8, 25, -28, 2, 41, 12, -21, 0, -4, 23, -21, 48, 19, 6, -4, -28, -29, -29, -28, 15, 23, 22, 0, -38, -38, -3, -40, 42, 9, 0, -41, 23, 27, -8, 43, 16, 4, -6, 2, -40, -36, -1, -40, -2, 21, 38, 10, -7, 21, 1, 25, 19, 27, 26, 12, -8, -13, -2, 16, 48, 33, -6, -34, -24, 27, 5, 28, 22, -39, 38, -12, -19, -29, 28, -30, 7, 7, 18, -29, 14, 26, 13, 26, -21, -43, 42, -44, 1, 10, -8, -36, 57, 26, 3, 14, -5, 31, 50, -19, -1, -14, 34, -18, -13, -5, 17, 5, 78, -7, -15, 29, 23, 28, 47, 16, 8, 6, 25, -42, -20, 4, -21, 9, 33, -29, 14, 29, -27, -9, 60, 20, 18, -10, -15, 9, -22, 18, -9, 13, 55, 26, -11, 29, -8, -17, 44, -2, -18, -18, 14, -20, -4, -3, -19, -35, 37, -21, -11, 15, -13, 26, 15, -10, -26, 46, -9, 22, 19, -23, 30, -19, 23, 5, 19, -21, -9, 6, 13, 25, 13, 53, -9, 8, 41, -17, -22, 9, 46, -11, -1, 32, -15, 32, 39, -7, -20, 8, 37, 17, 2, -11, 37, -4, -7, -33, 20, 15, -36, -12, 25, 8, 13, 40, 19, -5, 29, -14, -29, 3, 11, -33, -7, 8, 5, 0, -43, -21, 14, 27, -15, 45, 13, -25, -28, 24, 2, 5, 12, 8, 8, -7, 28, 21, 34, -3, -8, 31, 5, 29, -29, -5, 10, 28, 2, 36, 20, -8, -4, 17, 9, -6, 34, 22, -13, -23, 29, -26, 38, 19, -28, 0, 0, -26, 26, -39, -7, -19, -16, -11, -20, -31, 0, 16, -19, 10, 9, -32, -5, -9, -3, -30, 34, -22, -8, -26, -20, -36, 20, -19, -1, -17, -20, 4, -25, -42, 39, 19, 33, 24, -49, 10, 6, 21, 18, -33, 15, 7, -32, -29, 8, 11, -27, -22, -10, 18, -12, -14, 18, 19, -19, -38, -17, 19, -22, -21, -47, 2, -28, -15, 20, -13, 38, -3, 0, 9, -10, 1, 21, -9, 32, -42, -17, -14, -8, -2, 26, 45, 11, 37, -14, -25, -11, 15, -17, -23, -6, -5, -11, 23, -1, -21, -8, -11, -10, 35, -9, -16, 6, -5, -14, -2, 23, 20, 17, 29, 24, -33, -23, 0, 4, -21, -40, 20, 8, -13, -24, 22, -20, 17, 31, 5, -32, 2, -3, 25, -20, 14, -26, -29, -30, 15, -3, 19, -17, 28, -20, -5, 6, -13, 11, 15, -33, -19, 4, -6, 30, -31, 19, 29, 16, -39, -15, 29, -8, 27, -45, 14, 8, -10, 24, -12, 38, -10, 35, -6, -10, 11, -12, -23, 32, 36, -28, -46, -15, -35, 3, 11, -19, -5, 56, -8, -21, -14, -18, -8, -26, -10, -15, -30, 0, 7, -36, -2, -11, -4, 6, -7, 22, 15, -3, 30, 3, -23, -32, -24, -17, -12, -26, -18, -16, -32, 62, -13, -15, -15, -9, -20, 3, 4, -22, -30, -4, -35, 6, 7, 29, -27, 64, 6, -38, 29, -17, 0, 30, -11, -18, -43, -23, -1, -6, -46, -4, -5, 8, -11, -47, 1, 26, 16, 54, 19, 1, -11, -17, -1, 25, -4, 2, -30, 51, -18, 6, 26, 6, 5, 47, -16, -36, -16, -16, 37, 36, -16, 23, 2, -10, -7, 31, 22, -16, 18, 31, 16, -19, 41, -36, 0, 5, -39, 0, 12, 30, 31, -13, -6, 5, -18, -6, 36, 24, 30, -21, 46, -17, -34, 30, -7, 9, 23, -25, 21, 5, 16, 24, 25, -27, 27, -39, 1, 7, -38, -14, 14, -6, 16, 26, -6, 3, 6, -2, 6, -5, 19, -32, 8, -17, -16, 35, -42, 19, -4, 2, -1, -7, 25, -24, -23, 6, -16, 3, -38, 22, -38, 21, 14, -34, 10, 8, -2, 25, 15, 1, 13, -4, 55, 17, 4, 9, 1, -19, 21, 10, -12, 14, -41, 0, -3, -40, 5, -31, 2, 13, -27, -24, -32, 27, -46, -6, -22, -45, -35, -6, -34, -4, 15, 3, -3, -12, -28, 4, -16, -8, -44, -23, 2, 11, -1, -34, -17, 6, -42, -17, 5, -26, -14, -10, 22, -42, 10, 16, -3, -13, -19, 17, 19, 7, -3, 11, -21, -8, 6, -25, -40, -48, -27, 34, -20, -20, 3, -36, -4, 13, 6, -7, 13, 42, 16, 22, 18, -29, -29, 23, 6, 24, -33, -48, -38, 38, 21, -9, -6, -22, 7, -35, -28, -22, -29, -24, -20, 4, -28, 13, 12, 40, -40, -6, 7, -10, 20, -32, 33, -34, 20, -23, 9, 14, -16, -16, 23, -4, 26, -38, 32, -19, -13, -36, -6, -28, 6, -19, 6, 36, 25, -1, 19, -24, 12, -14, 18, -19, -31, -34, 18, 9, -24, -37, -1, 17, 1, -16, 25, -11, 18, -2, 8, -23, -35, 21, -27, -3, -44, 10, 0, 9, -29, 31, 39, 14, -5, -35, -47, -13, -48, -24, -33, 18, -38, -1, -3, -5, 1, -23, 29, 3, 36, 10, -38, 0, -9, -20, -37, -26, 19, -36, 30, -5, 8, -3, -18, -27, 36, -12, -25, 9, -1, -22, 17, 18, -44, -2, -31, -9, -19, 5, 3, -30, -21, -6, 0, 6, 19, 1, -18, 9, 20, -12, -19, -38, 26, -35, -15, 32, 28, 5, 21, -12, 4, -45, -36, -10, 22, 0, -1, -43, -27, 3, -25, -14, -25, -46, 20, -37, -14, -40, 21, -8, -16, -21, 14, -34, 4, -30, 31, 26, -9, -21, -30, -19, 0, 0, -36, 11, 8, 3, -3, -19, 11, -10, 18, 24, 11, 14, 29, -3, 42, 34, -40, -27, 3, 27, -23, 20, -21, -29, -17, 9, 39, 8, 22, -9, 42, -6, -37, 35, -32, -19, -24, -19, 2, -3, 14, -4, 19, 9, 19, -26, -16, -3, 15, -27, -40, -3, -7, -14, 9, 26, 6, -20, -24, -24, 18, 9, 16, 14, -24, -24, 1, -11, 28, 38, 12, 30, 10, 16, -3, -35, -25, -27, -40, 17, -12, -16, -37, -25, -19, -6, -17, -2, 8, -18, -23, -39, 30, 19, 22, 44, 23, -26, 18, 17, -12, 5, 36, -40, 10, 10, -4, -9, -10, 7, -25, 2, -15, -35, -16, -19, 33, -14, -23, -6, -28, -16, 0, -19, 11, -11, -22, 13, -26, 13, -43, -16, -20, -37, -8, -30, -2, 6, -34, -27, 44, 5, 4, -24, 5, 1, -45, -35, 31, 15, -17, 6, -15, 28, -47, 32, 38, -3, 38, 23, -6, -26, 31, -58, -6, 5, 22, -40, 5, 13, -4, 46, 1, 12, 15, 38, 15, 9, 0, 8, 14, -17, 8, -46, -31, -27, 19, 12, 41, 42, -4, -32, -20, 3, -26, 7, 5, 4, -36, 8, 5, 4, 21, -1, 45, -1, 8, -37, 12, -5, -17, -39, 30, 22, -40, 24, 29, 24, -4, -8, 7, 33, 16, 19, -16, -28, 24, -3, 11, -26, 23, 4, -2, 15, 27, -10, 22, -19, -38, 6, 37, -14, -23, -14, 8, -13, 9, -20, 14, -15, 23, 9, -28, -41, 19, -36, -18, 21, -5, -17, 12, 12, 2, 19, 8, -13, 3, -32, -11, -19, -20, 22, -12, 35, 8, -28, 21, -46, 36, -8, -2, -7, -18, 12, -15, -3, 15, 14, -41, 34, 15, -6, 13, 4, -3, 19, 35, -19, 0, -2, 18, -9, 11, 15, 12, -28, -7, -14, -26, -25, -20, -42, -11, -1, -16, -45, -25, 5, -25, -14, 24, -18, 10, -46, 9, -16, -23, 3, 44, -4, 37, -9, -33, 18, -31, -43, -9, -22, -38, -22, -14, -23, -9, 1, 20, -40, -7, 8, -42, -34, -2, 11, -41, -15, 2, -5, -17, 23, 2, 24, -2, 22, 33, -38, -20, -36, 23, -20, -17, 6, 10, -26, 22, -39, 7, -14, 14, -3, 41, 14, -32, -35, 40, -8, -4, 39, -20, 4, 5, -30, -28, -32, -6, 0, -26, 4, 25, -27, -14, -4, 17, 9, -6, -4, -9, 8, -27, 15, -7, 3, 28, 7, 31, -40, 18, -7, 22, -21, 20, 26, 11, -17, 22, -29, 17, -26, 21, -20, 4, 8, 9, -36, -40, 34, -48, -30, -24, 15, 26, -11, 14, -19, 28, -39, -4, 7, -31, 13, 15, 14, 16, -21, 30, 22, -6, -27, 13, -25, -22, -10, -36, -32, -1, -9, -6, -20, -10, 1, -3, 2, 46, -5, 40, 1, 41, 17, 0, 12, 54, 41, -32, -14, -20, 19, -5, -1, 43, 22, -8, 0, -23, -18, -7, -13, -19, -10, 5, 34, 33, -5, -33, -20, -4, 9, 5, 12, -34, 23, 8, -7, 17, -2, -40, -1, 11, -21, 30, -13, -5, 21, 14, 35, 13, -18, -14, 2, 17, -11, 18, 7, -38, 41, 29, -18, -27, 8, -20, -13, 4, -19, 4, -11, -6, -2, -15, -3, 27, 24, 18, 17, -47, 22, -44, -41, 11, 39, -22, 18, -24, 7, 20, -37, -12, 38, -16, 21, 2, -28, 24, 32, 3, -20, 29, 20, -15, 19, -1, -38, -4, -12, -27, 31, -18, 7, -33, 29, 9, 5, 5, 14, -8, 17, -5, -22, -19, -22, 25, 29, -26, 16, -30, 29, -2, 6, -40, -29, 19, -4, -9, -7, -3, -3, -10, 6, -26, 30, 33, -18, 27, -34, 33, -7, -8, 10, 16, 10, -7, 12, -23, -20, 9, -11, 30, -45, 34, 27, -44, -37, -31, 3, 13, -4, -44, -53, -26, -10, 30, 2, 37, -24, 32, -10, 6, -33, 19, -23, -8, -18, -37, -33, 6, -14, 38, -9, 8, 26, 37, -15, 1, -19, -31, -38, 20, -23, -37, 11, -11, 7, 18, -1, -24, 1, 39, -38, -4, -10, 0, -39, 25, 34, -40, -12, 3, 33, 19, -31, -9, 3, 6, 11, -45, -26, -29, 2, 17, -14, 16, -5, 29, -3, 30, 35, 18, 31, 31, -19, 19, 2, -5, 10, -23, -13, -42, -6, -22, 34, 41, -17, 0, -24, 45, 3, -14, -44, -30, -43, 27, 2, -24, -36, 14, 10, -7, -9, -4, -32, 46, -23, 10, 0, -15, -19, 12, 12, 3, -33, 22, 11, 43, -7, 18, -12, 5, -45, -12, -10, 15, 14, -11, 4, -14, -28, -34, 17, 5, -19, 19, -13, -5, -28, -28, 6, 19, 13, 21, 39, -43, -16, 31, 8, -13, -32, -10, -38, -12, -7, 2, 9, 26, 27, 23, -20, -18, -26, -5, 11, -10, 4, 5, 22, 27, -8, -15, -50, -28, -27, 19, 42, -3, -39, -24, 44, -23, 7, 24, -11, 6, 2, -23, 18, -15, -30, -2, 3, -17, 16, -30, -14, -23, 31, 34, 9, 29, -3, -15, -17, -27, -6, -6, -22, -9, -30, -9, -13, -14, -18, 28, -16, -12, -2, 3, -6, 32, 42, -29, 30, -28, 4, 27, 15, 44, 3, 8, -25, 4, -29, 46, -16, -22, 2, 11, 20, 18, -39, -22, -2, 28, -34, -14, 30, 2, -21, -3, 4, -4, 20, 10, 3, 15, -1, -26, -47, -27, -3, -12, -26, -7, -35, 8, -20, 19, 14, -41, 18, -5, 26, 28, -26, 17, -8, 8, 40, -25, -5, 23, 32, 47, 16, -37, -25, -32, 12, -5, 31, -45, 9, -3, -6, 0, 9, 45, -15, -17, 0, 8, -20, 9, -2, 34, -16, 39, 17, -9, -27, 12, -27, 31, 11, 17, -5, -2, 41, -14, -29, -19, 17, 44, 0, 29, 6, -21, 7, -13, -8, 42, -33, 0, 37, 39, -42, 18, 26, 11, -16, -10, -10, -23, -20, 10, 8, 5, -4, -17, -20, -24, -19, 27, 3, 26, -33, 16, -5, 29, -19, -14, 9, -28, -27, 24, 42, -14, -13, -24, 8, 26, 21, 21, -37, 20, -41, 17, -12, -23, -19, -31, -18, 6, -46, -6, -28, -17, 9, 10, -8, 29, -30, 2, -16, 37, 15, -18, -7, 15, -7, 0, -28, -24, 8, 31, -10, 36, 14, 21, 17, -36, -36, 11, 19, 3, -47, 33, -7, 45, -14, 32, 15, 20, -47, -2, -24, -26, 28, -21, -6, 8, 9, -15, 17, 32, 33, 43, 23, 20, -3, -29, -38, 22, 14, -22, -1, 14, -13, 27, 11, -16, 19, 17, 24, -8, 11, -24, 7, 16, -16, -37, -2, -23, -11, 17, 42, -6, -21, -1, 6, 18, -16, 18, -31, 17, -42, 16, 23, -35, -12, 34, -29, -1, -2, 1, 37, 29, 0, -9, -27, 40, 19, -20, -13, -28, 3, -35, 20, 26, 37, 7, 25, -1, -19, -29, -7, 21, 20, -45, -25, -45, -23, -34, -5, 37, 27, 26, -2, 35, 11, -41, -27, -15, 23, 12, -18, -34, 8, 22, -22, -22, -17, -4, -16, -21, -25, -41, -3, 49, -32, -9, 44, -23, 6, 28, -36, -17, -9, 41, 14, 23, 4, 27, -48, -17, 4, -5, -23, -31, -54, -33, 8, 23, 29, 29, -30, 37, 16, -3, -5, -34, -24, 28, 26, -36, 0, -7, 21, 15, 6, -2, -15, 25, -25, -21, 38, -24, -11, -37, -12, -9, -6, -27, 33, 6, 39, 21, -6, 0, 2, -7, 18, 12, 21, 18, -20, -25, -27, -6, 33, 37, 39, 11, 34, -21, 4, 13, 27, 30, 26, 14, 34, -13, -10, 12, -26, 1, -31, 1, -13, -32, 2, 6, 32, 9, 24, -10, -29, -1, 0, -18, -33, 13, -2, 12, -12, -3, 5, 55, 11, -22, 15, -5, -4, -13, -29, 14, 13, 6, -24, 19, -19, 1, -12, 48, 22, 40, 33, -9, -11, 11, 6, 31, 21, -23, 2, 21, -39, 13, 17, -13, -32, -17, 14, 20, -19, -34, -2, -4, -7, -12, 35, 4, -12, 34, 37, 42, 22, -9, 41, -2, 29, 6, 19, -30, 16, 39, 23, 22, -10, -9, 29, 29, -26, 52, -20, 45, 21, 26, 12, -5, 37, -11, -3, 22, -4, 7, -6, 7, -1, -15, -5, 24, 1, 44, 28, -25, 5, 43, 41, 36, 49, 28, 18, 8, 19, -8, -16, 12, 40, 16, -15, 25, 39, -5, 35, -3, 18, 35, -1, -28, -36, 45, 29, 29, 18, -19, -14, -8, -4, 46, 9, 31, -5, -13, -47, 4, 10, 42, 36, -26, -4, -5, 36, -27, -21, 44, 42, 36, 12, 34, 11, -27, -32, -26, 23, -22, 31, 22, -6, 6, 41, 21, -24, 22, -18, 9, -24, 2, -3, 32, -8, -21, 18, 13, 0, 0, 0, 9, 30, 35, 15, 18, -30, -15, -32, 20, -37, 14, 8, 4, -38, -21, 37, 8, 39, 16, -4, 6, -28, -16, 17, -5, 3, 29, 39, -28, -3, -20, 10, 9, 41, 21, -19, 44, 8, -26, -45, -22, -23, -28, 3, 19, -17, -8, 2, 9, 32, 23, 34, 30, -20, 22, -6, -16, 20, -30, 14, -28, -6, -16, 26, 33, 20, 43, 21, 2, -44, -7, 7, 32, 13, -17, 19, -5, 2, -25, 46, 25, -16, 21, 5, 38, -50, 37, -31, 49, -30, -10, 34, -44, -15, 27, 14, 11, 26, -3, 2, -16, -27, 6, -44, 9, -20, 20, -15, -19, 0, 10, 43, 33, 42, 27, 30, 37, 15, 16, -26, -21, -2, 23, -14, 2, -23, 22, 44, 30, 17, 10, -37, -13, 12, 29, -19, -23, 19, 17, 20, -8, -30, -24, 24, 13, -18, 44, 34, 21, -32, -18, 9, 29, 27, -22, 42, -12, 3, -3, 5, 10, -15, 25, 21, 40, -3, 37, 18, 23, -11, -18, 7, -12, 30, -31, 40, -18, -22, -17, 31, 37, 2, 23, 41, -7, -2, 23, 29, 14, 40, -14, 32, -28, -2, -13, -3, 5, 3, -5, 10, 33, 44, -23, -13, -12, 58, 20, 22, 36, -36, -32, 34, 18, -39, 40, 8, -4, 5, -2, 31, -26, 36, 27, 28, 13, 21, -14, -13, 7, -32, -4, -6, 41, -28, 5, -31, 19, -11, -2, -27, 2, -33, -41, -14, -34, 25, -3, 9, -19, 4, -11, -16, 22, -3, -16, 17, 8, -12, 29, 41, -20, 13, 16, -3, 35, 2, -9, 19, 33, 21, 30, -13, 27, 47, 12, 33, 27, 46, -10, -24, 46, 46, 48, 38, 8, 27, -2, 6, 26, 10, 43, 6, 20, 46, 27, 37, 15, -16, 43, 1, 19, 10, -34, -12, -1, 20, 46, 9, 36, 29, 40, -16, -5, 5, 17, 22, 17, 32, 15, 44, 0, 26, 44, -8, -15, 29, -9, 15, 53, 43, 30, 31, 24, 34, -19, 30, 17, 22, 3, 54, 43, 18, -31, -49, 24, 1, -25, 4, -25, 40, 19, 1, -22, 24, 20, -30, 1, 2, -9, -37, -2, -35, -18, 8, -9, 1, -5, 37, -3, 35, -19, -15, -2, -41, -23, -40, 16, 23, 35, 1, 16, 29, 23, -1, -20, -5, 33, -1, -17, -23, -44, -40, -15, -29, 21, -12, 13, -6, -21, -18, -7, 10, -1, 21, 2, -22, -21, -36, -32, 0, -35, -9, 1, 71, -5, -15, 10, -12, 8, 13, -23, -28, 2, 7, 21, 33, -20, 7, -5, 52, -31, -16, -21, -18, 29, 5, -23, 18, -12, -35, 18, 24, -17, 32, -9, 4, -27, -5, 25, -20, 0, 10, 0, -9, -8, 17, 15, 28, -9, -12, 12, 33, 33, 17, -11, 35, -19, 7, 41, 37, -3, -24, 38, 32, -20, -9, 40, 2, -28, 44, 13, -17, 33, 28, 9, 0, 12, -32, -3, 44, 37, 0, 22, 23, -27, 31, 22, 27, 12, 2, 42, 14, 3, 15, -8, 49, 9, -3, 7, 19, 11, 0, 47, -8, -22, -20, -8, -20, -2, -28, 25, 47, 12, 21, 6, 14, -29, -3, 21, -9, -18, -13, 38, 19, 5, 28, 1, 30, 6, -7, 20, -1, 23, -9, 15, -23, 34, 7, 44, -2, 53, -2, 16, -13, 18, -8, 14, -2, -20, -20, 12, -17, 15, 40, -12, -18, -4, 17, 1, 40, -12, -5, -7, 34, -18, 47, -7, 15, -1, 9, -11, -10, -15, -21, -18, -18, 31, 16, 8, 31, -28, 27, 20, -36, -22, -31, -3, -4, 36, -15, 7, -4, 3, -8, 28, -1, -8, -3, 20, -34, 8, 34, -11, -41, 27, 1, 30, -38, -34, -3, -25, -21, -5, -14, 16, -8, -2, -8, -37, -29, -17, 1, 28, -5, -39, -6, -34, -8, -25, 21, -9, 28, -9, -21, 43, 36, 8, 42, 27, 38, -23, 32, 27, 14, 22, 41, -6, 5, -22, 24, 12, 15, -14, 10, -8, 27, 14, -19, 40, -3, -5, 3, 2, 45, -18, 6, -20, 28, 14, 41, 3, 11, 18, -7, 44, 54, -20, 32, 37, 44, -1, 20, 35, 35, 25, 0, 13, -2, 32, -5, 11, 1, 11, 8, 21, -19, 14, -26, 41, 38, 34, -14, -3, 29, 20, 38, 15, 56, 27, -3, -2, 33, 30, 2, -4, -9, -11, -31, 35, -17, -35, 42, -29, 6, -25, 2, -14, 31, 22, -2, 43, 26, -28, -34, -34, 28, -13, 20, -31, 22, 8, 23, -11, -17, -11, 36, 46, -32, -38, -47, 10, -30, 12, 4, 7, 15, -10, -30, 40, -2, -7, -17, 39, -39, 14, -13, -23, -5, -41, 14, 12, -5, 25, 37, 36, -8, 24, -28, -9, -2, -42, -26, 16, -20, -35, -21, -24, 19, 11, -11, 39, 35, 15, 4, 44, 18, -35, 10, 22, -37, -33, -14, -39, -11, 13, 45, -2, 27, 25, 56, 3, 1, 20, -33, -2, 45, -36, 45, -18, 56, -22, -1, 1, 22, 39, 46, 6, 37, 32, -11, 4, 2, 41, 46, 7, 41, 4, -13, -4, 26, -8, 42, -4, -4, 25, -20, 39, 26, -18, -6, 14, 11, -18, 5, 12, -12, 6, 59, 28, 4, -10, -10, 34, 46, 29, 38, -12, -4, 9, 45, 37, 12, 29, 40, 36, -2, -11, 12, 41, 21, -3, 15, 16, 49, 4, 9, -16, 42, -20, -5, 44, 13, -2, -31, -9, 9, 16, -8, 8, 65, -15, -7, 20, 47, -19, -12, 3, -12, 29, 16, 12, -9, 0, -22, 21, 3, 10, 40, -1, 28, 33, 19, 11, -9, 29, -9, 13, -3, -20, 22, 44, 35, -28, -19, 25, -5, 3, 28, 14, -4, 19, -3, -3, 3, 17, 30, 16, 33, -14, 23, 13, -31, 14, -23, -6, 23, 42, -12, 10, 10, 25, 16, 41, -9, -8, 13, 1, -31, -6, 5, 19, 9, 42, -15, 6, -7, 36, -17, 27, 9, -32, -18, -7, 14, -2, -23, 31, 0, 9, 33, 39, -3, -41, 1, 0, -35, -28, -37, 4, -11, -42, -25, -14, 1, 1, 2, 38, -2, 16, -15, -22, 3, 24, 32, -1, 17, 3, -11, -25, 42, 42, 25, 16, -20, 10, -3, 40, 37, 0, -4, 9, 40, 16, 4, 8, 20, 13, -21, -9, -17, -19, -23, -6, 5, 19, -5, -5, -17, 22, 26, -13, -9, 33, 16, 15, 48, 42, 16, 27, 2, 18, 19, -9, -14, 22, -4, 33, 28, 8, 22, 33, 1, 13, 42, 4, 60, -34, 1, 42, 13, 24, -37, 46, -21, -26, 22, 5, 12, 14, 38, 21, 37, -31, -18, 7, 23, 39, 28, 20, -24, 14, 9, 9, 7, -41, 45, -1, 26, -24, -8, 10, -20, 27, -22, 32, -22, -23, -1, 23, 7, -20, 11, 21, -9, 27, 16, 42, -22, 45, -5, -16, -1, -23, 17, -36, 30, 2, -19, -22, 37, 24, 29, 7, -6, 21, 40, -20, -22, 9, -6, -43, 24, -6, -10, -22, -7, -32, 12, -20, 40, -4, 14, -20, -6, -8, -31, 19, 8, -7, 6, -13, -13, 5, 27, -11, 33, 34, 52, 30, -39, -11, -45, 18, -20, -27, 39, 21, 31, -7, 43, 35, 5, 22, 46, 3, 30, -2, -14, 35, -7, -31, -9, 18, -8, -24, -7, -17, 47, -3, 30, 47, 9, 17, 1, 2, 18, 36, -22, -17, -6, -11, 43, 8, 18, -19, 20, -2, -11, 53, -7, 24, 13, 18, -17, -12, -8, 7, 25, 6, 40, 16, -12, 20, 28, 21, -26, 50, 42, -10, 15, -2, -16, 9, 26, -2, -13, -18, 35, 20, 33, -6, -35, -1, 41, -23, -2, 40, 33, 27, 5, -2, 25, 5, 41, -19, -10, -7, 10, 1, 31, -8, -13, 10, 13, -14, 22, 17, -10, 42, -5, 25, -17, -6, -1, 8, -17, 8, 14, 45, 72, -28, 46, -20, -4, 19, 29, 10, -20, -12, -4, 21, 39, 40, -19, 22, -14, 33, 15, 22, 3, 16, 26, 0, -12, 42, 8, -23, 24, -8, 24, 42, 33, -4, 41, 26, 23, 5, -4, -20, -24, 13, -24, 41, 41, 4, -32, -16, 13, 13, -34, 8, -36, 19, 9, 17, -39, 13, -31, 4, 30, 14, 32, -26, -1, -35, 15, 38, 9, 15, 13, 32, 17, -21, 16, 16, -40, -31, -13, 1, -47, 15, -17, -1, 14, -41, -1, -32, 25, -8, -44, -11, 6, 10, 5, 9, 5, 34, -21, 38, 26, -1, 30, 18, 8, 43, 46, 11, -1, 8, -8, 15, 40, -31, 7, 44, 23, -20, -6, -23, -9, -10, 25, 10, 36, 42, -2, 11, 4, 33, 20, 39, -13, 30, -7, 19, -2, 30, 11, 31, 40, 17, 8, 48, 20, 2, -12, -7, 12, 1, 24, -12, -9, 42, -17, 52, -11, 4, 30, 40, -12, 34, 14, 46, 14, 23, 8, 38, 11, -6, 19, 43, 28, -19, -6, 45, -3, 2, -8, -16, -7, -8, 41, -19, 25, 14, -13, 20, 10, -35, 13, -18, 8, -29, 15, -22, 24, 37, 24, 26, 43, 13, -12, -15, 13, -27, -14, -4, -1, 29, 37, 32, -20, 44, -3, -2, 35, 24, -12, 5, -13, -17, -16, -29, 45, -3, 41, 13, 47, 16, 13, 36, 32, -37, 16, 25, -31, 3, 39, -2, -3, -1, -17, 32, 1, 11, 22, 41, 30, -10, -31, -11, -35, -30, 8, -22, -26, 10, 30, 28, 42, 20, 13, 40, 37, -28, -13, 18, 1, -39, 33, 27, 28, -7, -8, 27, -22, -17, 30, 39, -2, 48, 4, 23, 15, -33, -18, 19, -3, 1, 48, -7, -19, 14, 40, 3, 41, 5, -34, -6, 49, 12, 24, 8, 40, 7, -15, -10, 1, 0, -7, 21, 22, 56, 3, 25, 5, 25, 0, 20, 36, -23, -20, -22, 23, -10, 43, 33, 29, -2, -43, 45, 31, 44, -3, 45, 4, -27, 37, 5, 26, 7, 55, -15, 41, -10, -40, 37, 51, -5, -6, 49, 11, -16, -19, 2, -11, 19, 18, -18, 44, -3, 20, 20, 43, 38, -16, 17, 18, 12, 3, 4, 1, 9, 37, 16, -14, 52, 22, 21, 3, 11, 31, 9, 20, -33, -4, 20, 4, 15, -2, 13, -15, 2, -12, 36, 33, 0, -3, 36, 38, -34, 32, 24, -22, 0, 13, -20, -12, -6, 20, 11, 35, -2, 8, -12, 18, 19, 22, 25, -3, 1, 24, -25, -11, 15, -27, 3, 18, 10, 0, 33, -17, -21, 24, 0, 30, -5, 0, 2, -40, -14, -38, -24, 33, 21, -28, 18, -3, 24, -11, -22, -9, 1, -10, -25, 3, -10, -15, 10, -13, -32, -10, 7, 9, 23, -19, 10, -17, -23, -40, 1, -41, -20, -29, -6, 21, 5, -28, 11, 2, 28, -26, 3, -18, 10, 13, 0, 34, -15, 9, -10, 16, -34, 23, 22, 6, -21, 41, -24, -7, 15, -17, 15, 11, 23, 6, 37, 31, 5, -21, 2, 10, 26, 33, 39, 24, 29, -16, -25, -15, 17, 6, 29, 4, 42, -16, 45, -13, -2, 11, 2, 32, -4, -19, 45, -5, -2, -26, 26, 25, 34, 23, -12, 15, -13, 5, 5, 26, 7, -21, 11, 19, -17, 6, -21, 0, -32, -5, -15, 46, -23, -35, 25, 42, 45, 0, 8, 34, 4, 28, 44, 23, 7, 32, 17, -3, 32, 4, 6, -17, 42, -4, -13, 50, -9, -27, 33, 41, 0, 3, 37, -15, 8, -1, 5, -3, 22, -30, 25, 3, -8, -14, 33, -9, -2, 40, 46, 44, -27, 13, 25, 32, 37, 26, 5, -17, -17, 32, 0, -6, 23, 1, -19, 10, -12, -13, 8, 15, 3, -16, 2, -14, 27, -41, 17, 1, 16, -21, 6, 7, -8, -9, -9, 14, 23, -21, 14, 21, -21, 10, -37, 21, -2, -22, -14, 13, -22, -2, 13, 40, 9, 19, -14, 1, 14, -20, -13, 41, -30, -25, 12, 13, -16, 46, -5, 19, -3, -18, -1, 21, 36, 19, -19, 19, -3, 34, 22, -12, -3, 39, 37, 47, 25, 29, -25, 44, -6, -4, -10, -18, 19, 18, 32, 4, -14, 27, -15, 24, -3, 18, 28, 22, -25, -8, 44, -5, 6, 22, -5, 3, 8, 41, 16, 23, -18, -9, 41, -10, 1, 38, 53, 39, -21, -19, -5, -22, 6, -6, 3, 10, 24, 42, 5, 3, -6, 30, 29, 3, 22, -14, 33, -3, 2, 36, 24, -22, 41, -23, 28, -8, 32, 27, 34, 21, -21, -9, -14, -8, -13, 1, 44, 20, 44, 9, 44, -19, 25, 15, -13, 37, 9, 36, 18, 12, 33, 20, -19, -5, 20, 11, -19, 30, 35, -6, -18, -17, 18, 14, 2, 31, -28, 38, 14, 18, 4, -22, 22, 3, 1, -31, -19, -3, -4, -24, -18, -17, 6, -18, 15, -24, 3, 12, 24, 24, 22, -45, -12, -21, -2, -16, 27, -27, 30, 27, 10, 31, -13, -36, 14, 17, -46, -34, -8, -17, -34, 6, 22, -5, -17, -29, 12, 2, 28, 24, -25, -46, -39, 8, -25, 7, -21, -24, -32, -49, -8, -34, -4, 10, -32, 18, -8, 23, 35, 31, 32, 25, 23, -29, 27, -17, -7, 17, 19, -24, 1, 27, -14, 8, 10, 19, 27, -11, -8, -40, -26, 26, 6, -11, -27, 13, 34, -13, -5, -4, 43, -25, 4, 12, 12, -19, 28, -15, -10, 10, -16, 39, 31, -11, -16, 23, 25, -14, 14, -7, 0, -15, -24, 30, -12, 13, -3, 4, -17, 14, 27, 21, -6, -31, 28, -1, -26, -9, -17, 15, -5, -29, -24, -27, 20, 4, -36, 14, -43, 9, 39, 36, -27, 30, 5, 36, 11, 2, 15, 5, 26, -17, 26, 13, 28, -25, 43, 19, -10, -47, 18, -30, 7, -43, -24, 17, 25, 15, -42, -23, -46, -30, 32, -26, -10, -9, 7, -3, 19, -15, -26, -13, 9, 5, 20, -15, 45, 9, 31, -14, -39, -13, -18, 17, 10, 14, 18, 34, 31, -39, 12, -21, 42, -38, -5, -6, 3, -41, -33, -22, 22, 15, -14, 1, -4, 14, -30, 37, 3, -26, -16, -11, -15, 27, 0, 28, 10, -2, 3, -27, -15, 27, 9, -2, 16, -27, -23, 6, -12, -39, 21, 38, 15, -31, -15, 24, 15, -10, 3, 35, 43, -27, 5, 31, 15, 8, -4, 18, 32, 5, -34, -22, -6, 22, 2, -9, 23, 34, 44, 44, 20, 12, -2, 28, -34, 9, -1, 11, -13, 33, 13, 1, -17, -5, 40, 26, 25, 26, 29, 18, -35, -35, -25, -25, -18, 39, -18, 6, 42, 38, 28, 2, 38, -17, -10, 24, 12, 5, 19, -8, 5, 8, 0, 19, 11, -32, -15, 29, 2, -8, -9, -2, -26, 41, 25, 42, -3, 38, 39, 31, 46, 27, 23, 25, 11, -31, 32, 5, -22, 17, -26, -3, 3, 12, 0, 32, -18, 13, -17, -5, 12, -20, 12, 10, -35, 18, 33, -7, -7, 35, 16, -27, -5, -1, -22, 5, 16, 7, 11, -23, 11, -19, 7, -28, 33, 21, 11, 20, 7, -17, 33, 38, -37, -14, 0, 37, -28, 26, -11, -26, -22, -3, -32, 32, -15, -11, 8, 8, 11, 32, -5, -30, -12, 40, 14, 5, 3, -25, -11, -33, -24, -18, 21, -34, -15, 1, -11, 33, 5, 17, -4, -1, 32, -4, 21, -21, -2, -15, 9, -5, -20, 32, -14, 8, 30, 
  5, -23, 9, -42, -28, -16, 1, 0, 5, -19, -47, 10, 13, -6, -78, 14, -17, 14, -4, 7, -11, 10, -2, -21, -17, 22, -51, 20, 9, -6, -60, 6, 30, 29, 27, 24, -10, 25, -4, 23, -5, -14, -23, -11, -13, 37, -62, 31, 24, -27, 0, 35, -39, -3, 0, -7, 14, -2, -14, -35, 37, -44, -11, 32, 16, 39, 18, -14, 13, 21, -18, 21, -11, -29, 14, -16, 36, -41, -13, -15, 30, 7, 12, 31, -13, 22, 3, 2, 11, 4, -2, -28, 21, 2, 33, 18, 40, 27, 27, 20, 32, 23, 5, 22, 36, 19, -17, -17, 42, -31, 28, 27, -20, -3, -22, 36, 35, 26, -1, -10, -24, 14, 25, 6, 24, -47, 27, 16, 39, -22, -22, 31, -2, 26, -31, -9, 43, -44, 30, -49, 17, -46, -32, 22, -16, 1, 3, 35, -24, 31, 10, -15, 31, -14, -11, 17, 27, -20, -30, 28, -18, -9, 31, 34, -19, -21, 6, -29, 21, -2, -3, -36, 43, -47, 41, -28, 6, -25, 4, -17, 18, 33, -26, 3, -21, 9, 7, 7, 12, -33, -19, 27, 32, 16, -12, 17, 22, -4, -37, 7, 18, -29, 42, 11, 31, -36, 0, -6, 7, 1, -18, 50, -16, -4, 12, -16, 22, -3, 28, -22, -12, -33, -12, -24, 24, -4, -2, 34, -14, -2, -24, 25, 11, 18, -4, 9, -4, -27, -26, -15, -20, 23, -6, 6, 13, 32, -53, 2, -17, 37, 50, -40, 11, 16, -88, 6, 3, -11, -6, 10, -32, 20, -32, 4, 23, 3, 39, 10, 8, 13, -95, -17, -12, 14, -45, -9, 12, -33, 8, -40, 23, -8, 17, -37, 12, 25, -56, -9, -17, -18, 18, -28, 3, 5, 17, -39, -26, -13, -3, -30, -5, -35, -58, -2, -14, 5, -48, -5, -6, -15, -35, 15, 17, 46, -5, -30, -20, -38, -44, 3, -38, 19, -42, 21, -30, 2, -11, -33, 18, 5, 23, -37, 19, 3, -58, -21, -14, 20, 4, 11, 27, 23, -7, 14, -14, 10, 28, -39, 5, -1, -67, 20, 41, -28, -34, -51, 2, -6, 12, -23, -6, -24, 10, 20, -43, -39, -24, -5, 13, 19, -17, -23, -9, -1, -19, -41, -17, -10, 14, -34, -20, 22, -19, 17, -34, -37, -2, 17, -79, -20, 26, -8, 41, -2, 11, 22, -43, -33, -20, -19, 33, -27, 12, 5, -1, -3, 39, 38, 23, -30, -47, -19, -41, 16, -20, -6, 2, 32, 36, -15, -33, -26, -17, 17, -28, -3, -20, -39, -17, 28, -17, -1, 43, -34, 12, 47, 8, 27, -38, -17, 8, -37, -35, 17, -13, 0, 19, -12, -5, 14, 9, 22, 6, 20, -6, -12, 26, 6, -14, -7, -15, -10, 9, -13, 35, 1, 39, -15, 43, -2, -26, -10, 21, -19, 32, -45, -12, 2, 39, 18, 7, 33, 32, -17, 58, 11, -36, 16, 20, 14, -21, -35, 26, -43, 12, -7, -2, -15, 14, 41, 27, 36, -44, -33, 0, -50, 17, 17, 26, -44, -17, -24, -14, -30, -6, -17, 50, 36, -28, 6, -9, -10, 28, -49, 7, -8, 9, -23, 25, -4, -6, 3, -1, 6, -3, 21, 51, -34, -30, -8, 23, -18, 23, 23, 19, -15, 18, 6, 7, -18, 20, -33, -17, -23, -30, -42, 4, 9, 21, 0, -6, -17, 12, -5, -7, 31, -45, -25, 49, 8, 39, -37, -11, -13, -9, 24, 23, -12, 22, 41, 44, 36, -38, -16, -9, -39, -9, -25, -11, -17, -1, 12, -7, 13, 22, 50, 44, -15, -53, -1, 8, 30, -11, -2, 19, -36, -23, 34, -32, 21, -14, 27, 44, -24, -40, 39, 0, 9, 25, -37, -9, -33, -6, 11, -6, -22, -3, 24, -9, 31, -38, 8, 5, -4, 13, -3, -13, -40, -55, -15, 23, -24, -2, -24, 5, 24, -14, 15, 38, -17, -19, 6, -27, -8, -27, 7, 27, -21, -8, 23, 4, -17, -28, -7, 25, 33, 33, 10, 38, -33, -15, -14, 17, 33, 6, -20, -4, -28, -48, -15, 6, -6, -6, 26, -16, -32, -30, 25, -27, 28, 28, 9, -12, -26, -17, 0, -3, -18, 21, 15, -24, -26, -77, -17, 28, -7, -37, 14, -8, 7, -23, -6, 37, 31, 33, 9, 23, -26, -63, -26, -19, 21, -29, -23, -5, -19, -31, -1, 5, 24, -28, -16, 34, -12, -29, 4, 7, 11, -8, -43, 18, 26, -15, -23, 3, 25, -2, -4, -1, -29, -67, -10, -30, -11, -25, 12, -31, -25, -32, -28, -5, 5, -18, -14, -27, 19, -9, 28, -40, -28, -30, -44, -65, -2, -9, 35, -7, 14, -14, 16, -18, 5, -27, -10, 26, 1, -36, -20, -57, 5, 25, -15, -15, 7, 4, 9, 17, -10, -15, 1, -15, -37, -2, 33, -2, 36, -19, -9, -37, -36, -20, -34, -26, 14, -11, 20, 35, -29, 29, 8, 0, 6, 14, -8, -7, 3, -7, 3, 10, 20, 53, 20, 30, -19, 29, -15, 27, 34, 10, 9, -26, -53, -10, -48, 7, 10, 19, 31, 9, -4, -12, -6, 23, 19, -19, -43, 26, -53, 45, -44, 12, -15, -40, -6, 35, -26, 10, 9, 63, -20, 14, 25, 35, 11, 8, -20, 27, -34, 1, -36, 14, 13, -3, 7, 26, 2, 11, 29, -11, -5, 24, 6, 25, -2, -4, -5, 12, -6, -7, -2, 32, 29, -1, -16, -6, -3, 0, -17, 19, -5, -15, 7, 19, 8, 7, 18, 55, -7, -21, 15, 35, -24, 11, -33, 39, -19, -2, -3, -19, 8, -15, 26, 30, 30, 10, 21, 3, -25, 22, 9, -1, -18, -13, -11, 2, -15, 0, 0, -2, 41, -23, 37, 44, -38, 22, -6, 14, -21, -12, 32, 39, -6, -19, 6, 50, -13, -51, 5, 40, 13, 35, -34, -5, 5, 10, 15, 16, -16, 23, 14, 30, 27, -9, 7, 25, -38, 25, -45, 38, -44, -35, 9, -10, 12, 37, 26, 1, 0, -23, 30, 26, -28, -7, 17, -14, -25, -53, -5, 7, 40, 37, 18, -2, -12, -31, 10, -5, -3, -20, -30, 40, -26, -19, -11, 27, -28, -25, -4, 24, 1, -49, 19, 27, 24, 35, 11, -21, 27, -35, 1, -19, -10, 16, 26, -8, 23, -21, 38, -30, 1, -1, -26, 15, -35, -74, -23, 0, -12, -30, -13, -2, -1, -17, 44, 29, -25, -44, -22, 30, 0, -4, -26, 9, -20, 37, -11, 21, -11, -23, 26, 15, 18, -37, -30, -6, -27, -40, 32, 38, -25, 3, -3, -14, -10, -35, 34, 8, -21, -35, 16, -10, 1, -25, 0, 12, -14, 29, 10, 30, -22, 5, -6, 23, 19, -19, -12, -6, 5, -30, -8, -17, -18, 16, 33, -25, 26, 16, -20, 14, -1, -4, 1, 24, 11, -21, -4, -22, -16, -49, -3, 5, 12, -47, -2, -38, -5, 31, -11, -18, -21, -43, 7, -11, -20, -21, -17, -27, -37, 42, 4, 12, 7, -27, 19, -35, -35, -68, -9, 25, -14, -11, -18, -32, 15, 11, 1, 25, 22, -36, 21, 9, 4, -22, -7, -16, 16, -8, -7, -50, -3, 33, -39, -19, -57, -5, -36, -8, 3, -13, 25, 37, 6, 33, 13, 7, 13, -21, -50, -51, -19, -1, -29, -15, 30, 52, -21, 40, 17, 42, 49, 21, -6, -47, -29, 21, -25, -20, 6, 42, -30, 13, 21, -12, 4, 25, -12, 62, -9, 13, -48, 5, -51, 4, 3, 32, -23, 36, -26, -2, -1, 7, 37, 48, 23, -46, -59, 37, -38, 6, -31, 0, 17, 2, -14, -9, 19, -6, 13, 8, 27, 16, -33, -20, -5, 28, -32, 3, 16, -9, -20, -12, -17, 15, 43, -2, 37, -36, -72, -6, -50, -6, -5, -4, -3, 10, -25, -13, -18, 3, 25, -3, 44, -10, -38, 6, -21, 6, 8, -18, -11, 8, 10, 29, -13, 45, 19, -12, 38, -35, -14, -5, -9, 25, -43, 44, -22, -16, 33, 3, 37, 20, -6, -21, -20, -11, -49, 17, -28, -39, -50, 40, -27, -18, 8, 7, 0, 48, 11, 43, 25, -49, -22, -8, -45, -40, -49, -11, 11, -2, 7, -19, 22, 38, -4, -8, -12, -39, -40, 2, -48, 2, 1, 29, -8, -1, -23, 6, 36, -6, 19, -9, 4, 11, -6, -2, 22, -11, -30, -14, 12, -32, -20, 11, 18, 11, -7, 8, 20, -28, -13, 10, 11, -12, -29, -14, -37, 15, -30, 22, 24, 32, -19, 22, -7, -14, 24, -12, 8, 21, 0, 28, -24, -21, 27, 22, 42, -24, 42, 11, 36, 5, 38, -3, 24, -32, 5, -6, -33, -13, -10, -9, -2, -19, -19, -39, -10, -43, -2, 13, 19, 4, 10, -22, -45, 14, 10, -23, 15, -16, -5, -28, 16, -48, 20, -16, 23, -21, -33, -26, -19, -8, -32, 35, -24, 21, 15, -16, -20, -3, -5, -18, -13, -27, 5, 24, 4, -45, 21, 11, 5, -21, -6, 30, -11, 9, -24, -8, 31, 34, -16, -21, -11, -27, -17, -30, 36, 14, -23, 25, -13, 12, -22, -36, 8, 7, -16, 10, -5, -41, -13, -34, 25, -35, -48, 9, -34, -10, 8, 15, 29, -2, -36, 3, 22, -39, -26, -18, -13, -18, -16, -3, 5, -5, 38, 9, -41, -39, 9, -10, 31, -49, -24, -22, 1, -33, 30, -48, 16, 23, -23, 20, -23, -11, 23, 21, -17, -64, 20, -1, 27, 4, 24, -49, -26, 19, 7, 17, 10, -50, 9, 0, 46, 3, 29, 40, -23, 23, 8, -24, -2, -8, -19, 15, 3, -48, 28, -12, 20, 11, -33, 28, -17, 24, 4, -38, 21, -36, -16, -21, -30, -27, 1, 33, 0, 26, -22, 0, 21, 36, 6, -6, 27, -40, -47, -14, -8, -7, -36, -2, -50, 31, -8, 26, -18, 18, -13, 59, -17, -28, -3, 6, 1, 4, -50, 17, 7, -1, 11, 12, 31, 42, 16, 14, 38, -4, -23, 8, -7, 0, -13, -8, -13, -19, 28, 3, 20, -18, 4, -7, 6, -8, -41, -14, 3, -17, 15, -5, 0, -30, 6, 13, 7, -16, 43, 51, -4, -38, -22, 19, -8, 9, -4, -8, -30, 4, 30, -6, 19, 13, 44, 16, 39, -7, -60, -25, -6, -36, -1, 31, 2, -22, 28, -17, 1, 17, 45, -23, 35, -13, -47, 5, -2, 22, 0, 3, 23, -36, 27, -9, 9, 51, 31, -11, 46, -43, -63, -29, -21, 17, -18, 39, -20, 8, -7, -20, -15, 29, 15, 60, -4, -43, -56, 27, 6, 9, -37, 12, -15, -2, -29, -38, 30, -13, 28, 30, 32, 7, 0, -31, 30, 37, -11, 7, -23, -29, 32, 34, 42, 43, 28, 20, -25, -29, -46, -29, -8, 35, 17, -21, 15, -36, -31, 8, 23, 39, 6, -11, 40, -16, -40, -2, -30, 18, 10, 27, 5, -9, 22, 30, 21, -25, 40, -26, 30, -29, 7, -30, 24, -37, -30, -24, -17, -36, 14, 19, 1, -25, -13, 22, -5, -41, 7, -26, 0, -15, -4, -11, -21, 10, -31, 38, 38, -5, 11, -36, -6, -51, -18, -33, -8, -19, 22, 29, 8, -3, -1, 23, 28, -25, 21, 13, -16, 7, -39, 15, -18, -1, 40, -26, -11, -29, 21, 6, -5, 27, 20, -4, 11, -9, 18, 11, 41, 12, 23, 46, -13, 4, -26, -43, 0, -28, 6, 11, -28, -39, -26, -47, -17, 1, 14, -20, 12, -31, 14, 5, -20, -38, -6, -21, 9, -22, 1, -15, 19, -18, -46, 11, -10, -7, -32, -32, 12, -31, -16, 17, 26, -41, -20, -22, -12, -19, 13, -30, 12, -75, 11, -5, 32, 10, 3, -13, -20, 13, -41, 5, -27, -2, -31, -1, -1, -11, -34, -14, -5, -34, 33, -14, 1, 21, -38, 3, -39, -32, -1, 4, -23, -40, 7, 51, -36, 6, 19, -28, 31, 5, -9, -41, 2, -4, -4, 0, 29, -14, -22, 35, 41, -12, 27, 21, 4, 19, -38, -12, -40, 9, -23, -7, -25, 72, 26, 0, 23, 38, 7, -1, 24, -15, -23, 1, -15, -17, 14, 3, -17, 46, 10, 36, -23, 36, 4, 43, -5, -38, -46, 19, -11, 31, 6, -12, 1, 25, 32, 22, 25, 42, 17, 53, -5, 0, -28, 45, 3, 32, -42, 0, -5, 15, -18, 42, -3, -8, 51, 19, -8, -23, -27, 34, -6, -25, -47, 31, -37, 29, -31, 32, 11, 45, 37, 43, 33, -13, -67, 9, -16, 18, -43, -20, 0, 19, -27, 35, 16, 24, 34, -13, 20, -13, -5, -5, -1, 11, -7, 41, 15, 38, -6, 40, 2, 14, 54, -30, 8, 15, -20, -36, -52, -37, 5, 45, -30, 63, -10, 32, -3, -1, 42, -5, 35, -4, -29, -23, -20, -32, -41, -16, -2, 56, -4, 4, 9, 10, 2, 14, 29, -40, -49, 0, -4, 8, 18, -19, -42, 14, 25, 13, -9, 37, 36, -5, 21, -27, -37, -28, -36, -4, -19, -13, -23, -25, -19, -27, -21, 26, -14, -29, 8, -30, 11, -33, 23, -21, 27, -9, -26, -16, 19, 37, 19, 28, -17, 3, 23, 7, -17, -36, 13, 27, -13, 9, -23, -18, 29, -22, 14, -6, 29, 23, -9, 15, -45, 5, 32, -23, 34, 2, -4, -25, 14, -18, 13, 31, -10, 9, -23, 21, -23, -33, -6, 22, -14, 35, 20, -10, 1, 34, 17, 11, 0, -3, 39, -35, 8, -11, 8, 1, 8, 22, -17, -36, -10, -10, -21, 10, 9, -2, 6, -28, -46, 31, 37, -16, -19, -7, -10, -55, -8, -38, -1, 20, 23, 7, 23, -37, 35, -18, 21, 51, 16, 1, 9, -26, -30, -30, 7, -12, -13, -15, 19, 0, 34, -11, -7, 25, -15, 19, -9, -3, -4, 6, 8, 3, -24, -39, -30, 14, -11, -42, 44, -19, -25, -37, 19, -43, 6, 34, -18, -34, -15, -2, -1, -35, 15, -2, -32, 5, 12, -18, 15, -32, 18, 0, 5, 18, -35, -28, 14, -35, -37, -30, -33, 17, -24, -2, 20, -62, 9, -6, -12, 28, 28, -21, -33, 28, 1, -40, -59, -43, -2, -34, 30, -29, 6, 21, 3, -8, -15, -50, 41, 33, -57, -12, -11, 12, 24, 2, -29, 48, -17, 26, -15, 30, -9, 19, 28, -11, -2, 17, -24, -27, -4, 46, -29, 49, -15, 21, 33, 45, 30, 29, -7, 24, -1, -28, -21, -11, -6, 48, 20, 60, -2, -5, -29, 24, 39, -4, 13, 19, -2, -9, 6, -15, -30, 37, -8, 55, -16, 23, 39, 9, 3, 22, -15, 27, -35, 23, -14, 14, -33, 49, -40, 34, -10, 51, -17, 36, 12, 17, 28, 17, -3, 44, 5, -16, -38, 12, -7, 60, 35, 38, 29, -2, 29, 24, 12, -17, -15, 29, -9, 11, -37, 10, -23, 12, -1, 30, 3, 41, 41, 57, -16, 0, -25, 27, -46, 12, 9, 26, -42, 101, -32, -6, 4, 9, 8, -14, -11, -9, -10, 27, -11, 31, 7, -8, 0, 20, -18, 22, 35, 1, 4, -11, -12, 13, -44, -3, -37, 19, -12, 39, -39, 69, -26, -27, 12, 16, 17, 0, -14, 13, -62, 6, -11, 29, -15, -7, -5, -9, 3, 27, 30, -25, 19, 12, -19, -36, -40, -4, -24, -14, -26, 33, 11, 25, -33, -4, -10, 19, -5, -22, -18, -22, -42, 13, 25, 23, -27, -19, -6, -40, 2, -9, 42, 34, 6, 22, 22, -33, 4, 17, 32, 26, 17, -3, 24, 14, -34, 26, -21, -16, -15, 12, -12, -3, -26, -29, 34, 4, -28, 20, 4, -49, 22, -5, 19, -1, 24, -11, -11, -16, 5, -33, 26, 34, 35, 16, 6, -30, 23, 47, -7, 35, 39, 6, -3, 28, -46, 3, -11, 14, -8, 35, -30, -3, 11, 10, -14, 7, 25, 38, 13, -20, -20, -4, 14, 8, -17, -11, -28, -25, 32, -2, 2, 47, 0, 47, -11, -4, 32, 2, 31, 4, 15, 32, -11, -22, -35, -9, 6, 10, 11, 3, 4, 12, -15, 25, 47, -11, -11, -18, 23, -48, 31, 8, -4, -39, 9, -13, -20, 4, -13, -25, 2, -30, 36, -34, -25, -20, 4, -17, -20, -28, -24, -26, 20, -19, -5, -51, 2, -36, -14, 29, -3, -68, 7, -22, 7, 0, -4, -44, 18, -38, -26, 20, 16, -19, 10, 6, -7, -20, 32, 2, -39, 34, -34, -52, 34, -21, -45, 2, -26, -24, 28, -7, 24, -37, 30, 11, -41, 34, -9, -36, 18, 16, -56, -41, -6, -8, -8, -23, 14, 3, 12, -15, 12, 5, -6, -9, 0, 16, -12, -24, 8, -11, -24, -23, 5, 48, 34, 11, 33, 39, 8, 27, -6, -6, -31, -9, -14, 12, -9, 47, -45, 60, 22, 17, -11, 12, 44, 31, 0, -34, -56, 12, -3, -31, -39, 38, -6, 58, -10, -14, -26, 12, 4, 26, -15, 11, -13, -13, -16, 23, -46, 35, -28, 84, -24, 52, -16, 11, 36, 14, 31, 15, -22, -12, -11, -18, -5, -6, 26, 72, -22, 13, 41, 18, -5, 36, 11, -39, -51, 24, -12, -39, 16, -1, -26, 57, 35, 48, 29, 13, -3, 50, 45, 5, -50, -28, 10, -19, -28, 20, -27, 41, 19, 7, -5, 26, 37, -19, -13, -39, -42, -17, -4, -23, -19, 26, 4, 40, -35, 44, 23, 12, 9, 4, 38, -31, -61, 6, -15, -24, -11, 10, -12, 4, 25, -39, 11, 7, 19, 46, 26, 7, -37, -26, -8, -15, -40, 29, -14, -4, 12, 26, 41, 20, -18, -27, 10, -39, -32, 11, 28, -7, 16, 30, -30, -13, -33, 29, 3, 29, 29, -6, -6, -10, 4, 24, -38, 13, 25, 21, -12, -21, 1, 42, -21, 22, -25, -28, 33, 6, 6, 0, -2, 0, 3, 31, 5, -13, 4, 17, 2, -18, 6, -38, 30, -25, 5, -38, -7, -30, -3, 23, 4, -24, 7, 21, 36, 24, 22, -33, 22, 5, -7, 6, -20, -19, 6, 16, -16, -2, 6, 34, -20, -21, 4, -33, 45, -26, -39, -22, -45, -27, -19, -15, -37, -50, 25, -24, 28, 33, 3, 19, -7, 24, 23, 38, 27, 47, 19, 43, 19, -10, -9, -13, 39, 37, 41, 47, 27, -27, 18, -30, -16, 31, 15, -8, 31, 43, 8, -9, -24, 26, 2, 34, -29, -25, 7, 11, 30, 5, 30, 21, -22, -27, -28, 42, 2, -1, 24, -26, 1, 36, 35, 19, 21, 16, 4, 28, -12, 29, 16, 23, -27, 12, 20, -80, 29, 12, -43, 6, 19, 14, -7, -23, -4, -28, -34, -28, -33, -8, -15, -58, 12, 18, -25, 13, -12, -5, -18, 4, 10, -45, 22, -37, -11, 0, 15, -44, -1, -23, -17, 7, -41, 3, -37, 6, 16, -8, -33, -6, -42, 26, -16, -3, 29, 15, -37, -32, -47, 5, -41, -2, 24, 18, 11, 3, 4, 6, 38, -40, 36, -27, -28, -8, -8, 17, -25, 32, 6, 16, -9, -3, 9, 43, -12, -5, 48, -17, -15, -9, -19, 16, -16, -6, 5, 35, 22, -12, -31, 37, 18, 5, -20, 4, -12, 16, -24, -24, -49, 18, -14, 73, 26, 6, -27, 30, 28, 38, 6, 15, -30, -8, 4, 13, 1, 23, -23, 67, -27, -15, 30, -3, 40, 47, -13, -10, -34, 19, -37, -5, -33, 30, -28, 41, 20, 2, 13, 24, 27, 3, -19, -5, -15, 2, -6, -33, -26, 34, -42, 79, 8, 18, -10, -1, 46, 36, -2, 9, -59, 2, -29, -16, -21, -14, 20, 37, -3, 25, -7, 35, 5, 18, 8, 21, 3, 29, -30, -2, -34, 19, -21, 43, -19, 29, 16, 48, -9, -21, 12, -38, 9, -6, -52, -31, -23, -12, 23, 3, -25, -14, 45, -14, 8, -12, 2, -19, -15, -18, -6, 18, -28, 17, -5, 6, 2, 13, -22, -10, 20, -8, -3, 6, -47, -32, -19, -1, -41, -12, -18, 20, 29, 26, 17, 38, 18, -25, 27, 18, -29, -35, -16, 18, 12, 42, 19, -36, -28, 11, 16, 41, -2, -22, -21, -24, -29, 15, -26, 30, 12, 22, 1, -13, -5, 25, 18, 13, 38, -41, -9, -32, -31, -9, 24, -26, 12, -12, -8, 11, -3, 6, 15, -15, -20, 15, 7, -11, -31, 12, 11, -2, -18, -25, -21, 8, -15, -6, -2, -14, 32, -44, 2, -40, -29, -13, -18, -34, 34, -16, 10, -20, -29, 13, 31, -5, 8, 50, 45, 15, 3, 39, -17, 23, 29, 8, -7, -39, -7, -17, 4, 36, 41, 5, 39, 0, 24, -39, 3, 25, -10, 39, 18, 15, -6, -10, 20, -27, -13, 12, 2, 5, 36, -2, 15, 16, 25, -9, -6, -3, 4, -13, 7, 2, -24, -1, -13, 44, 33, 39, -24, 15, 24, 19, 3, 14, -32, 33, 32, 20, -27, -23, -34, -40, -18, -34, -24, -45, -19, -30, 0, -13, -8, 20, 28, 3, -6, 9, 21, -29, -13, -26, 6, -8, 3, 19, 30, -37, 2, -24, -28, 18, -1, -30, -37, -29, -38, -35, -32, 14, 16, 17, 11, -37, -22, -32, -35, -6, -8, -9, 28, 8, 4, -22, -60, -47, 7, -22, -4, -7, -31, 17, -46, 23, -13, -35, 2, -4, -36, -48, -49, -4, 2, 4, -36, 50, 22, 29, -27, 24, 23, 22, 39, -47, -2, -28, -2, -1, -8, -6, -42, 45, 20, 23, -36, -15, -9, 15, -12, 14, 0, -39, -25, -47, 4, 1, 21, 54, -7, -11, -36, 18, 33, -19, 46, -24, -49, -28, -42, 3, -42, -15, -28, 53, 14, 29, 16, -19, 42, 22, 40, -26, -21, -43, -24, -18, -43, 38, 0, 64, -10, 49, -1, -4, -17, 52, 28, -43, -34, -23, -55, -9, -13, 47, -31, 46, -25, 49, -37, -6, -6, 55, 10, -21, -4, 22, -33, 25, 12, 6, 3, 26, -31, -1, 7, 49, 40, 3, 39, -29, -11, -5, -58, 5, -51, 23, 18, 16, 17, 19, -25, 27, 50, 10, 29, 12, -11, -21, -51, -4, -51, -1, -4, 39, 23, 6, 16, 34, 3, 1, 17, -38, -10, 20, -5, -31, -40, 21, -36, -31, -31, 11, 1, 7, -18, 20, 22, -5, -15, -42, -41, -24, 21, 14, -38, 14, -20, 2, 2, 19, 22, 1, -22, -5, -51, 13, -37, -34, 24, 13, 2, 3, -31, 21, 46, -13, -22, 3, 9, -14, -38, -28, -19, -29, -17, -5, -27, -3, -20, 9, 24, -20, 30, -18, 3, 19, -20, -12, 21, -4, -15, 6, -25, -17, 14, -16, 31, -14, 1, -22, -9, 13, 17, -37, 5, 0, 43, 14, -14, -16, 35, -17, -6, 43, 26, -6, 30, -14, -59, 35, 19, -7, 10, 47, -26, -31, -16, -5, 13, 32, 2, -7, 2, -13, -12, 51, 1, -3, -24, -18, -26, -11, 4, 10, -12, 5, -20, -9, 32, 17, 44, -47, 5, 28, -10, 25, 29, -38, -29, 19, 32, -18, 30, -4, 13, -19, 3, 7, 24, 19, -26, 11, -3, 15, -9, 10, -4, -12, 29, 10, -19, 13, -29, -20, 34, -5, -22, -24, 6, 51, 28, 6, -7, -17, -19, -11, -11, 17, 10, -14, -17, -40, -31, -10, 6, -42, 5, -14, 1, 12, 17, -45, 22, 3, -14, -25, -40, -47, 21, 12, 2, -27, -31, 11, 11, 20, -20, -45, -7, 14, -17, -21, -27, -5, 14, -10, -2, -28, 19, -33, -10, 4, -23, 6, 23, -42, -26, 2, -31, 7, -46, 10, -9, -25, 5, -21, 12, 24, 27, -28, -12, -19, -31, -25, -50, -43, 9, 11, -11, 19, 34, 9, 8, 35, 15, 33, 13, -2, -33, 7, -46, -39, -34, 32, -40, 23, -22, 28, -41, 11, -9, -18, 14, 8, -52, -14, -14, -21, -13, -2, -21, 68, -25, 42, -39, 16, 1, 10, 31, -12, -71, 12, -25, -14, -42, 23, 4, 51, 11, 14, -34, -21, 31, 25, -3, 14, -54, -4, -51, -31, -14, -17, 5, 39, 23, -10, -9, -15, 14, 20, 45, 0, -19, -16, -30, -28, -32, 14, -27, 31, 31, 6, 10, 30, 32, 26, 17, -16, -33, -10, -41, -9, -8, 6, -17, 36, 23, 31, 23, 19, 27, -5, 27, -49, -48, -32, -42, 13, -43, 23, -2, 33, 13, -17, -7, -17, 8, -6, 1, -26, -21, -14, -19, -35, -42, 36, 6, 11, 14, -41, -8, 10, 34, 6, -18, -9, -58, 23, 3, 42, -5, -23, 4, 11, -20, 2, -27, 32, 12, 13, 0, 5, 1, -44, -33, -17, -18, 27, -14, -21, -12, -31, 33, 35, 2, -19, -17, -35, 15, -33, 1, -18, 19, -25, 32, -23, -23, -23, 26, -17, 22, 0, -2, 16, -56, -41, 8, -16, 4, 29, -17, -34, -35, -5, 27, -4, 14, 11, 17, -7, -27, -22, 0, -24, -6, 13, 36, -12, 28, -4, -2, 10, -24, 11, -14, 4, -16, -45, -58, -38, 40, -1, 13, -53, -17, 12, 40, 50, 42, 47, 17, -29, -34, 36, -50, -42, -13, -4, -44, -2, -20, 18, 2, -17, 31, 46, -13, -18, -16, 9, 2, 26, -27, -9, 32, -37, 11, 3, -19, 34, 2, -5, -4, -32, 22, 22, -7, -1, -10, -15, 33, -16, -12, 17, -14, -14, 29, -14, -14, -42, 17, 1, 26, 22, 26, -5, -13, -22, -17, 33, 4, 6, -15, -19, -27, -8, -11, 15, 17, 36, -5, 23, 30, 16, -34, 15, -20, 7, -33, 9, 1, 2, -37, -24, 2, 10, -25, -27, 16, -18, 24, 19, 23, -11, 10, -8, -21, -10, -11, 4, -3, -2, -30, 23, -8, -17, -17, 5, 6, 29, 25, -46, -5, -14, -36, -4, -54, -7, -27, 11, -37, -16, 23, 22, 5, 1, 11, -28, -9, 25, -32, -24, -2, -54, -39, 19, 8, 3, 9, 3, 10, -23, 36, 8, 25, 4, -53, 1, -44, -29, -16, -20, -30, -6, -9, 49, 20, 3, 38, -28, 13, -19, -66, -13, -41, 5, -27, -6, -30, 17, -13, 47, -22, -10, -18, -7, 35, -20, -46, 9, -1, 19, -22, -20, -36, 42, -22, -12, 23, -6, 38, 25, 5, -29, -62, 22, -9, -29, 0, 19, 7, 47, -4, 29, -19, 6, -3, 16, 39, 10, -24, -33, -13, -5, -3, -5, -3, 32, -25, 1, -38, -20, -6, 15, 23, 21, -67, -10, -18, -12, -42, 7, -17, 46, -20, 26, 20, -27, 28, 6, 14, -30, -61, -20, -53, -12, -35, 5, 1, 40, 22, -9, -19, -13, 7, 55, -17, -47, -34, 3, -39, -8, -19, -22, 28, 30, 17, -5, 3, 44, 33, 8, 40, -28, -17, -23, -31, 5, -47, 26, 12, 32, -22, -38, 9, 33, 37, -8, -20, 2, -31, 34, 1, -15, -1, 1, -36, 15, 32, 7, 22, -10, -24, 0, -11, -25, -7, -14, 8, -15, -18, 4, -13, 15, -29, -15, -27, 1, -8, -15, -23, -23, -25, -30, -31, -15, -18, 34, -28, -51, -6, 8, -20, -12, 19, -2, 0, -29, -11, -39, -23, -2, -16, 20, 34, -6, -28, 13, -22, 21, -18, 2, 30, -22, 9, -50, -5, 8, 15, -13, -28, -1, 11, 37, -16, -12, 10, -1, 28, -3, -47, 19, 10, -29, -24, -2, -36, -30, 7, 17, -17, 37, -14, 14, 40, 31, -6, 32, 29, -24, -9, 13, -30, -17, 23, -31, 10, 32, 45, -5, -13, 8, -10, 48, -9, 55, 15, 2, 7, 46, 25, -2, -17, 1, 42, -18, -3, -4, -13, -36, 41, 13, 31, 15, 11, 9, 21, -7, -8, 30, -7, 24, -25, 27, -18, 17, -53, -43, -25, -30, 29, -15, 32, 17, -3, -24, -30, -8, 9, -30, 1, 15, -22, -26, -45, -20, 34, 9, -26, -36, 20, 24, 23, 0, -32, -18, -8, -8, 0, 10, -17, -25, 25, 3, -2, -38, -16, -30, -15, -39, 9, -10, -19, -40, -28, -20, 12, 7, 7, 20, -7, -9, -36, 8, -24, 20, -41, 25, -14, -48, -50, 17, -30, 18, 36, 11, -1, 15, 12, -1, 2, -42, 8, 8, 5, -9, -28, 13, 6, 27, 12, -14, 32, 20, 16, 6, -5, 3, -34, 25, -20, -31, -31, 7, -32, -9, 8, -4, 23, 14, -7, 29, 23, -44, -20, 19, -37, 11, -36, -4, -39, 34, -26, 2, -14, 0, 23, -8, -3, -30, -13, 25, -70, 11, -32, -36, -26, -10, 12, 44, -28, -20, -40, -27, -12, -14, -12, -4, -23, 7, -37, -13, 14, 4, -6, -5, 5, 47, -4, 17, -4, -36, 34, 43, -32, -14, -55, -11, -40, 36, -17, 44, 23, 33, 2, 39, 3, 15, -9, 25, -43, -36, 4, -27, -35, 24, -22, 59, -2, 2, -14, 36, 20, 23, -3, 2, -41, -7, -53, 12, 5, 24, 8, 21, -31, 2, -13, -20, 38, 27, -12, -12, -31, 11, 3, -32, 12, 15, 37, 14, -17, -30, 14, -4, 35, 25, 8, -12, -1, -9, -5, -5, -5, 31, -22, 12, -23, 29, -13, 4, 21, 16, 4, 17, -41, 30, -12, 13, -46, 20, 5, 19, 1, 16, 34, 26, 30, 24, -23, 19, 4, -25, 12, -12, -41, 26, 37, 28, 20, -1, -12, -5, 27, -5, -19, 16, 23, -9, -31, 13, 20, -20, 37, 4, -26, -26, 39, -19, -19, 15, -34, -10, 16, 11, -18, 31, -27, -24, 45, -1, 6, 24, -4, -30, 7, -40, 9, 35, 14, -41, -44, -16, -19, 8, 28, 6, 7, -6, 0, -16, 2, 15, 21, -5, -32, 11, -2, -42, -6, -19, -41, 33, 26, -12, 0, 19, 6, -4, -15, 6, 13, 17, 29, 41, 3, 6, 29, 0, 11, -37, 47, 24, 47, 43, 9, -36, 6, 0, -15, 41, -17, 30, 27, 31, 24, -9, -14, -34, -1, -12, -8, -22, 25, -18, 34, 22, 27, 5, 19, 30, 16, 2, -3, -5, 17, -49, 6, 21, -59, -40, 4, -35, -23, -12, -21, -58, 8, -51, -30, -2, 16, -27, -42, -10, -38, -46, -22, -22, -29, -29, 3, 17, -24, -16, 20, -11, 18, -24, -25, 44, -11, 8, -12, -31, -6, -5, 25, 8, 6, -40, -3, -27, 6, -17, 11, 32, -39, -42, -13, 28, 14, -9, 9, -1, 10, 0, 17, -22, -17, -27, -11, 36, -4, -7, -49, -32, -31, -45, 1, 1, -11, -46, -26, -22, -11, -15, -36, 46, -37, -10, -18, 0, 11, 8, 14, -1, -23, 14, 18, -37, 10, -3, -24, 9, -60, -4, -61, -30, -30, -29, -39, 45, -16, -21, -6, 22, -16, -40, -29, 36, -8, -20, -4, -44, -34, -27, -12, 35, 6, -11, -37, -6, -7, -29, -25, -13, -50, -13, -53, -32, -25, 9, 16, 37, 23, -12, -7, 23, -9, -10, -8, 31, -62, 19, -16, 11, -4, -19, 8, -4, 29, -19, -26, 17, -31, -39, -41, 16, -52, -36, -34, 11, 7, -2, -17, 48, 33, -3, 17, 33, 20, 14, -19, -5, -37, -6, -45, 15, -29, 30, -6, 23, 29, -16, 13, -1, 40, -3, -17, 47, -38, -14, 12, -15, 10, 28, -18, -4, -9, -1, -18, 4, 22, -39, 9, -22, -31, -23, -6, -21, -5, 19, 41, 53, -5, 17, 6, -2, -23, 11, 39, -38, -1, 3, -25, 12, -42, 1, -21, 12, -31, 27, 34, 36, -15, 16, -8, 37, -12, 4, 31, 1, 13, 26, -23, 12, 6, 39, -32, 27, -30, 20, -7, 21, 11, -19, 27, 32, -30, -10, 13, -13, -6, 31, 0, 4, 0, 3, 0, 11, -12, 35, -20, 26, -36, -10, 3, -5, 3, 19, -6, -19, 13, -29, 10, 9, -10, -34, 16, 4, -2, -1, 50, 0, -2, 40, -10, -2, 21, -38, -33, 38, -31, -22, 3, -47, 41, 2, -10, 7, 9, 31, -5, -4, 43, -26, -13, 47, -43, 2, -30, 15, -3, 13, -37, 33, -4, 12, 12, -16, 17, 8, -19, 44, -6, 42, 34, 13, 40, 34, -7, 23, -17, -13, 8, -10, 25, 36, 34, 13, -17, -16, 10, 23, -23, 36, 42, 21, -5, 1, -11, -4, -25, -4, -47, -26, -18, -14, 15, 35, 13, -18, 22, -34, -12, -27, 10, 5, 15, 3, -23, 11, 1, -31, -18, -56, 11, -42, -26, -73, 14, -9, -10, 0, -22, -20, 13, -5, -33, -39, -10, -10, 18, -4, -35, -62, -22, -19, -50, -19, -35, 1, 4, -19, -50, -17, 11, -20, -5, 2, -41, 15, -2, -6, -38, -46, 17, 8, -41, 46, -34, -53, -58, -5, 1, -50, -21, -3, 23, -6, -36, -21, -30, -21, 15, 49, 10, -17, -50, -51, -14, -35, 21, 48, -9, 17, 17, -46, -49, -24, -25, 46, -44, 13, -38, -27, 5, -15, 40, 32, 6, -35, -28, -42, 15, -32, -15, 9, 11, -23, -36, -3, -37, -6, 20, 26, -28, 10, 1, -16, 11, -39, -45, 0, -14, -21, -35, 0, -31, -14, -30, 40, -15, -44, 0, -17, -35, -44, -31, -25, -28, -1, -34, -47, -3, 18, 24, 21, 3, 0, 17, -37, -22, -31, -34, -3, 0, 43, -4, -43, -12, 20, 17, 26, -27, 15, -25, -24, -9, -45, -42, -10, 1, 5, 2, 8, 28, 21, -11, 28, 2, 32, 14, 25, 29, -22, 25, 7, -46, 11, -20, -2, 20, -35, 2, -9, 3, 27, -19, -3, 16, -21, 23, 31, 17, 10, -34, -13, -22, -10, 28, 11, -28, 21, -27, -19, -27, -17, 4, -27, -27, 47, -48, 2, -21, 32, -5, -24, 18, -8, 28, -15, -24, 22, 19, 7, -30, 33, 18, 11, -4, 0, -44, 33, 30, -13, 27, 12, -8, -23, -37, 1, 18, -17, -13, 6, 17, -40, 43, 29, 1, -23, 21, -5, -11, 5, -31, 16, -7, -5, 25, 18, -37, -38, 0, -16, -33, 22, -43, -25, 7, -17, -14, 29, -18, 14, -21, -6, 7, -34, 42, 24, 7, 17, -7, -30, -4, -36, -36, 16, 14, 11, -22, -21, -16, -33, 12, 39, -7, 2, -29, -3, -43, 7, 27, 40, -9, -11, 10, 7, 7, 5, -23, -5, 16, 18, -27, 14, -23, -6, 15, 23, -36, -19, -35, 13, 22, -26, 9, 22, -21, 23, 23, 42, 13, 27, 0, 5, -11, -8, 5, 5, 22, 3, 26, -15, -15, -40, -20, 32, -7, 15, 41, -49, -8, 2, 7, 17, -31, 43, -12, -9, -1, -26, 15, 8, -17, 1, -19, -47, -17, -24, 11, -2, -22, 0, -24, -73, 18, -25, -13, -42, -49, -33, 14, 8, -31, -7, -28, 7, -37, -25, -19, -66, -16, -12, 5, -8, 17, -29, -6, -40, -5, -1, -38, 14, -29, 15, -52, -55, -12, 10, 7, -23, -15, 12, -23, -30, -11, -45, -5, -42, 0, 16, -36, -11, -31, 14, -34, -19, -13, 15, -1, 0, -38, 8, 11, -32, 22, -1, -41, 3, -9, -9, -24, 2, -6, -41, 4, -27, -7, 6, -34, -37, 7, -29, 0, 36, -33, -41, 12, -29, -12, -52, -2, -3, -4, 14, -45, -17, 29, -34, 15, 9, -15, -1, 11, -1, -14, -54, -40, 6, -14, 13, -58, -40, 15, -41, -38, -7, 0, 16, 6, 5, -10, 2, -35, -36, -10, -14, -3, -54, 3, -40, 16, 14, -2, 19, 15, -17, -19, -29, -45, -8, -21, -40, 3, -21, -19, -11, -16, -17, 1, 12, -22, 5, 14, -31, 5, -6, 4, -51, 6, -35, -21, -2, 22, -14, 5, 7, -16, -13, -32, -35, 14, -33, -13, -30, -46, -34, -1, -33, 15, -8, -10, 43, 12, 0, -3, 4, 10, 29, -14, -26, -11, -47, 23, -4, 12, 8, -24, 29, 23, 38, 15, 12, -5, 7, 17, 33, -8, -24, -8, -6, -1, 6, -26, 7, 13, 1, -10, 10, 20, -17, -37, -15, -14, -34, -35, -36, 3, -14, 0, -10, 18, -5, -14, 35, 5, 16, 8, 23, 51, 28, -22, 18, 24, -8, -8, 1, 19, -16, 3, 11, 6, 18, -32, -3, 6, 8, 8, -44, -14, 28, -19, -23, 18, 3, -23, -5, -9, 40, -27, 29, -7, 43, -38, -25, -7, 34, -22, -30, 19, -25, -17, -22, -31, 23, -9, 15, 31, 2, -37, 10, 0, -15, 7, -40, -23, 1, -27, 14, -25, -12, 9, -16, -20, -39, 10, 12, 26, 31, -22, -1, -12, 7, -38, -25, -44, 53, -36, -46, -31, -16, -27, -45, -2, -4, 26, -4, -22, -12, 3, -33, 19, 54, 31, 5, 21, 22, -5, 18, 32, -5, 18, 23, -7, 17, -15, 5, 29, -15, -16, -5, -5, 38, -9, -30, 3, 21, 30, -13, -10, -7, -11, 9, 9, -47, -12, 8, 43, 29, 10, 13, 3, 32, 3, -16, -27, -25, -7, -19, 10, -38, 13, 15, 29, -4, -2, 9, -19, -20, -3, -20, -8, -35, -6, -21, -23, -14, -45, -45, 19, -18, 2, -29, -47, -36, 9, 14, -46, -19, 12, -16, -12, -13, -49, 1, -28, -23, 25, 16, -6, -27, 6, -45, -1, -44, -39, 14, 4, -42, -2, -11, -34, -22, 14, -35, -6, -9, -13, -44, -34, 15, 5, -20, -9, 3, 0, -5, 19, -9, -21, -24, -47, 16, 19, 17, -2, 11, -25, -17, -48, -33, 2, -22, -20, -48, 12, -23, -37, 4, -32, -42, 8, -49, -27, -67, -30, -49, -30, -8, -47, -40, 23, -8, -42, -20, -14, -40, -2, 3, -32, -29, -43, 12, -52, -46, -57, -15, -17, -28, -15, 21, 23, -21, -42, -31, -23, -3, 1, -14, -31, -30, -31, -7, 20, -23, -43, 26, 35, -26, -16, -47, -4, -31, -18, 21, -32, -34, -23, 21, -23, -22, 4, -6, -8, 0, -24, -20, 10, 5, 4, 22, 8, -49, -12, 9, 36, -37, -23, -22, -3, 28, -10, -9, 13, -28, -12, 4, -16, -26, -20, -14, 33, 18, -22, -20, 7, 2, -30, -25, 24, 5, -32, -32, -32, -32, -52, -21, -6, 16, -17, -10, -28, -2, -13, -24, -13, -24, 24, 33, -8, 40, -10, -26, -27, -6, -6, -2, -17, -19, 2, -25, -2, 40, 31, -16, -1, 9, 34, 23, -1, 26, -1, -13, -11, -6, -16, 3, 13, -34, -2, -44, -13, 14, 6, 27, -1, 16, 11, 13, 1, -39, 9, 4, -16, -18, -42, -2, 12, -14, -2, 11, -15, 15, 6, -37, 19, 12, -35, -25, -48, -11, -31, -20, -15, 7, -15, -5, 17, -34, -28, -35, 12, -26, -45, 14, -27, 4, -4, 5, 24, 4, 10, 33, 27, -29, -5, -10, 31, -35, -31, -1, -8, 14, -25, 19, 17, -10, -19, 4, 31, -10, 15, 30, -33, -13, -27, 12, -25, 22, -43, 50, 15, 15, -24, -9, 39, 21, -23, 17, -22, 8, -34, 4, -28, -7, -7, 15, -18, 4, 17, -18, 9, -39, 47, 8, 26, 4, -30, 11, -31, 16, 27, -13, -10, 20, 14, -35, -7, -25, -6, 37, 16, -2, -1, 0, 19, 1, -16, -30, 3, 8, 21, -9, 32, 5, 11, -18, 3, -28, -20, 29, 5, -26, 7, -38, -3, -37, 22, -28, -38, 3, -20, -67, 24, 7, -25, -23, -12, -13, -29, -30, 37, 15, 17, -2, 14, 34, 10, -6, 7, -1, 33, -7, -9, -38, 22, -7, -22, 21, -20, -4, -30, -3, -40, -12, -15, -50, -36, -51, -14, -20, -36, -16, -16, -4, -23, -24, -26, -23, 2, -43, -32, 5, -34, -17, -28, -5, -42, 16, -23, 0, 3, -33, -37, 2, -13, -52, -21, 18, -28, -8, -13, -26, -33, 4, 24, -7, 19, 7, 22, -31, -4, -21, 22, -3, -23, 12, -2, -52, 7, -16, 44, -13, -9, -46, 11, 17, -26, -33, 8, 15, 19, -18, -20, -67, -34, -38, 14, -33, -22, 4, -23, -37, -7, -63, 24, 35, -14, -25, -51, -30, -16, 7, 12, -11, -38, 8, 19, -49, 31, 1, 19, -37, -18, -20, -32, -5, -44, -20, 0, 16, -37, -32, 23, -7, 19, -49, -15, -43, 3, 21, -4, 7, -12, -10, -31, -36, 10, 13, -21, -6, -13, -33, -8, 39, 3, 21, 5, -24, 8, 16, 47, -34, -3, -1, 7, -43, 23, -4, -27, -16, 2, -25, 24, 3, 0, 39, 24, 8, -40, 12, 13, -27, -14, -37, -11, -3, -13, 3, -29, 11, -5, 39, -1, 32, -5, -4, 33, 15, -1, -42, 24, 29, 15, -18, -6, -8, -22, 12, 17, 51, 19, 32, -16, 9, -36, -30, 1, 1, 4, -2, 11, -30, 3, -8, 27, 19, 37, -20, 29, -23, -15, -22, 7, -6, -18, -35, -13, 39, -28, 15, 17, 23, 9, 24, 12, -30, -29, -43, 27, 12, -36, -48, 15, -10, -40, -21, -33, 0, 25, -20, 7, 0, -30, -26, -18, -12, -41, -20, -18, -12, -36, 1, 2, 27, 15, -23, 16, 19, -33, 3, -30, -2, -39, -33, 5, -34, 0, 13, 30, -20, 30, 17, 24, 1, 8, 23, 5, -22, -22, 19, -25, -27, -39, 43, 10, 14, 9, 0, -22, -35, -7, 7, 4, 9, -6, -37, -33, -13, 14, 22, -26, 17, -12, -35, 30, -46, 8, 44, 29, -24, 9, -30, 9, 3, -26, -35, -22, -32, 21, 10, -31, 4, -11, 24, 23, 12, 21, 16, -41, -21, -25, -17, -29, 13, -14, -45, 23, 7, 12, -58, -28, -21, 4, 11, -24, -25, -12, -6, -28, -8, -7, -45, 28, -7, -27, -12, -27, -13, 32, 21, -13, -55, 25, -14, -47, -34, -12, -46, 14, -22, 18, -14, 26, 5, -18, -26, 2, 29, 25, 3, -14, 15, -8, 27, 24, -15, 14, -43, -1, 10, -48, 13, -8, -31, 17, 6, 13, -30, 29, 8, 8, -30, -47, -73, 0, 11, -6, -44, -47, 19, -27, 6, -33, -33, -14, -42, -25, -40, -16, -53, 2, -2, -25, -48, -2, -38, -42, -42, 14, -41, 31, -21, -14, -34, -35, -60, 1, 6, -27, -39, -17, -54, -32, 6, -6, 9, -24, -45, 39, 15, 5, -78, 26, 16, -12, -14, -28, -2, 2, -16, -23, -46, -39, -37, -22, 10, -25, -15, -5, -16, 0, -9, -27, -45, -8, -4, 15, -23, -36, 19, -30, -47, 19, 5, -29, -6, -49, -46, 16, -23, -43, -15, 0, 38, -16, -3, 2, 16, 48, 20, 0, -35, 3, 16, 0, 10, 10, -7, -49, -28, 0, -28, 8, -11, 12, 23, 17, 42, 21, -44, 17, -7, -24, -10, -10, -40, -38, 3, 26, -17, -24, -7, -35, 46, -44, -23, -26, 27, -6, 40, -58, -21, 14, -9, 43, -33, -17, 43, -9, 28, -16, -24, -19, 13, -10, 9, 16, 29, -33, 19, -22, -28, 33, 14, -7, 10, -3, -21, 12, 51, 7, 16, -60, 